svm_type epsilon_svr
kernel_type rbf
gamma 0.0078125
nr_class 2
total_sv 569
rho -0.95169928071715904
probA 0.36505963309841283
SV
8 6:-0.92429 7:-0.289773 8:-0.264516 9:-0.97411 10:-0.980769 16:-0.774447 17:0.257732 18:-0.405317 19:-0.983243 20:-1 25:-1 26:-0.684816 27:-0.232143 28:-0.657044 29:-0.964459 30:-1 31:-1 32:-1 33:-1 34:-0.889126 35:-0.317857 36:-0.124061 37:0.538988 38:-0.662677 39:-0.996005 40:-0.999746 41:-1 42:-0.995632 43:-0.902339 44:-0.547902 45:0.116376 46:0.250476 47:-0.0735313 48:-0.863076 49:-0.998971 50:-1 51:-1 52:-0.959439 53:-0.712364 54:0.210713 55:0.334127 56:0.231433 57:-0.69158 58:-0.995094 59:-1 60:-1 61:-1 62:-0.931125 63:-0.441204 64:0.603423 65:-0.0584723 66:0.168739 67:-1 68:-1 69:-1 70:-1 71:-1 72:-0.974382 73:-0.754864 74:0.0354698 75:-0.177181 76:-0.519627 77:-1 78:-1 79:-1 80:-1 81:-1 82:-0.975528 83:-0.809956 84:-0.107404 85:-0.451478 86:-0.882929 91:-1 92:-1 93:-1 94:-0.791246 95:-0.158073 96:-0.0135355 97:-0.21482 98:-0.880178 99:-0.996186 100:-0.996491 101:-0.125923 102:-0.0962091 103:0.376325 104:0.0404105 105:-0.338235 106:0.0316585 107:0.697574 108:0.445345 109:-0.104258 110:0.224604 111:-0.0429448 112:-0.108264 113:-0.361463 114:-0.328368 115:-0.108278 116:-0.0072355 117:0.0147179 118:0.250194 119:-0.0741423 120:-0.323529 121:0.119724 122:0.387944 123:0.435856 124:-0.0511433 125:-0.0982759 126:-0.0851064 127:-0.178679 128:-0.39515 129:-0.379755 130:-0.226787 131:-0.626803 132:-0.199481 133:0.204901 134:0.0779705 135:-0.115681 136:0.0186458 137:0.472209 138:0.175217 139:0.44091 140:0.105485 141:-0.183702 142:0.0893366 143:-0.59036 144:-0.387723 145:-0.167413 146:-0.162655 147:-0.114188 148:-0.596711 154:-0.933579 155:-0.614166 156:0.020595 157:0.111273 158:-0.919164 159:-1 160:-1 161:-1 162:-1 163:-1 164:-0.908203 165:-0.433409 166:0.29798 167:-0.238462 168:-0.969287 169:-1 170:-1 171:-1 172:-1 173:0.16 174:-0.583756 175:0.0930388 176:0.537098 177:-0.400717 178:-0.993103 179:-1 180:-0.9375 181:-0.720074 182:-0.114993 183:0.635526 184:-0.151201 185:0.628627 186:0.382332 187:-0.650133 188:-0.994723 189:-0.996957 190:-0.834859 191:-0.228712 192:0.167382 193:-0.163179 194:-0.150922 195:0.263986 196:-0.421396 197:-0.869643 198:-1 199:-0.975054 200:-0.516645 201:0.55116 202:0.503677 203:-0.180791 204:0.278364 205:-0.158645 206:-0.812332 207:-0.985612 208:-1 209:-0.938484 210:-0.130763 211:0.725714 212:0.0120069 213:-0.607959 214:-0.115385 215:-1 216:-1 217:-1 218:-1 219:-0.920635 220:0.0848886 221:0.315259 222:-0.41687 223:-0.862616 224:-1 225:-1 226:-1 228:-1 229:-0.820374 230:0.255195 231:0.0909091 232:-0.649667 233:-0.919355 234:-1 239:-1 240:-0.774194 241:-0.109948 242:0.348703 243:-0.0771313 244:-0.144285 245:0.267643 246:-0.297688 247:-0.855908 248:-1 249:0.122614 250:-0.334775 251:0.240876 252:0.010047 253:0.135135 254:0.277479 255:0.582487 256:0.355796 257:0.447627 258:0.122833 259:0.28 260:-0.0540112 261:0.153619 262:-0.265595 263:0.171244 264:0.217201 265:-0.251604 266:0.244949 267:-0.0453778 268:0.240838 269:0.123213 270:0.436765 271:0.342165 272:0.604734 273:0.261767 274:0.155216 275:-0.0302965 276:0.185813 277:-0.345556 278:0.00576509 279:-0.995937 280:-0.865546 281:-0.73494 282:-0.693721 283:-0.543046 284:-0.275804 285:-0.024024 286:-0.188119 287:-0.306626 288:-0.0664366 289:0.574779 290:0.32867 291:-0.230019 292:-0.349675 293:0.0567336 294:-0.678856 295:-0.639671 296:-0.99829 302:-1 303:-0.963899 304:-0.819033 305:0.172193 306:-0.555901 307:-1 308:-1 310:-1 311:-1 312:-0.990385 313:-0.848101 314:-0.468672 315:0.381215 316:-0.687956 317:-1 318:-1 319:-0.6 320:-0.733333 321:0.259259 322:-0.737374 323:-0.475317 324:0.152253 325:0.356932 326:-0.820513 327:-1 328:-0.822917 329:-0.289157 330:0.610063 331:0.138462 332:-0.338983 333:0.00381679 334:0.328699 335:0.0420561 336:-0.886631 337:-0.95138 338:-0.442002 339:-0.00661001 340:-0.117347 341:-0.242838 342:-0.251719 343:-0.0974265 344:-0.106061 345:-0.716862 346:-0.987915 347:-0.818559 348:0.288786 349:0.286778 350:-0.038 351:-0.304075 352:-0.131833 353:0.317829 354:-0.445378 355:-0.936508 356:-1 357:-0.663617 358:0.758831 359:0.0750988 360:-0.429812 361:-0.806763 362:-0.4 363:-0.714286 364:-1 365:-1 366:-1 367:-0.534469 368:0.255543 369:-0.422764 370:-0.837004 371:-0.965116 372:-1 373:-1 374:-1 375:-1 376:-1 377:-0.417647 378:-0.125761 379:-0.797422 380:-0.931624 381:-1 382:-1 386:-1 387:-0.901639 388:-0.206573 389:0.0654762 390:0.162791 391:-0.447648 392:-0.40155 393:-0.0965092 394:0.186047 395:-0.515275 396:-0.984127 397:-0.0783015 398:-0.227005 399:0.517241 400:-0.0102589 401:-0.543689 402:0.0691676 403:0.227746 404:0.185237 405:-0.19774 406:0.0447761 407:-0.223629 408:-0.306769 409:-0.633721 410:-0.609891 411:-0.498231 412:0.167625 413:-0.153915 414:0.451737 415:-0.201557 416:-0.533632 417:0.0850077 418:-0.121212 419:-0.0293555 420:-0.116809 421:-0.369458 422:-0.291045 423:-0.432132 424:-0.6125 425:-0.667807 426:-0.582841 427:-0.564945 428:0.173077 429:0.79622 430:0.635368 431:-0.255814 432:0.0216393 433:0.13783 434:0.333977 435:0.074254 436:-0.080663 437:-0.588166 438:-0.317641 439:-0.781227 440:-0.649867 441:-0.544484 442:0.370475 443:0.465207 444:-0.539307 
7.6604945792560084 6:-0.791798 7:-0.335227 8:-0.354839 9:-0.851133 10:-0.961538 16:-0.778016 17:-0.108591 18:-0.189366 19:-0.81173 20:-0.961924 25:-0.333333 26:-0.480301 27:-0.331981 28:-0.779446 29:-0.957997 30:-0.983471 31:-1 32:-1 33:-1 34:-0.953092 35:-0.141667 36:-0.304949 37:0.465681 38:-0.215029 39:-0.872928 40:-0.964997 41:-1 42:-0.966303 43:-0.880533 44:-0.589865 45:-0.0649848 46:-0.0355227 47:0.0124792 48:-0.628612 49:-0.92841 50:-0.990836 51:-0.984048 52:-0.868011 53:-0.591523 54:0.16177 55:0.00574207 56:0.24724 57:-0.133407 58:-0.843012 59:-0.93122 60:-0.98911 61:-0.967563 62:-0.733483 63:-0.121623 64:0.647255 65:-0.320472 66:0.0248668 67:-0.9447 68:-0.964286 69:-1 70:-1 71:-0.914333 72:-0.76547 73:-0.370484 74:0.474051 75:-0.282148 76:-0.175173 77:-0.925606 78:-0.908364 79:-0.991618 80:-0.987441 81:-0.94949 82:-0.792295 83:-0.498164 84:0.130195 85:-0.557384 86:-0.677533 91:-1 92:-0.914894 93:-0.71831 94:-0.569024 95:-0.141167 96:-0.195091 97:-0.136976 98:-0.662205 99:-0.952956 100:-0.992982 101:-0.141354 102:0.176179 103:0.595503 104:0.589834 105:-0.382353 106:-0.0147059 107:0.64874 108:0.316879 109:-0.221658 110:0.0792171 111:-0.0102249 112:-0.241879 113:-0.558368 114:-0.493295 115:-0.290274 116:-0.0252504 117:-0.17068 118:0.0509175 119:-0.228563 120:-0.382353 121:-0.0436816 122:-0.0805589 123:0.824581 124:-0.0200733 125:-0.0551724 126:-0.119149 127:0.220304 128:-0.420827 129:-0.415132 130:-0.414828 131:-0.599745 132:-0.143186 133:0.249852 134:0.273061 135:-0.0848329 136:-0.0702382 137:0.229651 138:0.317917 139:0.697507 140:0.0362869 141:-0.258439 142:0.228451 143:-0.50458 144:-0.495811 145:-0.352425 146:-0.039926 147:-0.0118841 148:-0.580377 154:-0.867159 155:-0.666356 156:0.00839054 157:0.237818 158:-0.891289 159:-1 160:-1 161:-1 162:-1 163:-1 164:-0.841797 165:-0.435666 166:0.363636 167:-0.165385 168:-0.941032 169:-1 170:-1 171:-1 172:-0.8 173:-0.04 174:-0.676689 175:-0.0917001 176:0.550163 177:-0.341376 178:-0.948768 179:-0.99536 180:-0.835227 181:-0.609576 182:-0.077147 183:0.346053 184:-0.261259 185:0.483946 186:0.545128 187:-0.492995 188:-0.956276 189:-0.927992 190:-0.710224 191:-0.0695187 192:0.10515 193:-0.265392 194:-0.252873 195:0.374972 196:-0.164741 197:-0.695536 198:-0.971366 199:-0.854121 200:-0.328105 201:0.546764 202:0.336602 203:-0.338983 204:0.279683 205:-0.0338681 206:-0.630027 207:-0.956835 208:-1 209:-0.854266 210:-0.0340136 211:0.605714 212:-0.230189 213:-0.667231 214:0.346154 215:-1 216:-1 217:-1 218:-1 219:-0.826389 220:0.306442 221:0.0907945 222:-0.569682 223:-0.862616 225:-1 226:-1 228:-1 229:-0.714286 230:0.494597 231:-0.087344 232:-0.740576 233:-0.924731 234:-1 239:-0.943182 240:-0.483871 241:0.113438 242:0.345821 243:-0.0365359 244:-0.110556 245:0.283622 246:-0.216763 247:-0.783862 248:-0.990654 249:-0.0336548 250:-0.199197 251:0.335103 252:0.641513 253:0.017199 254:0.385088 255:0.681961 256:0.427594 257:0.131751 258:0.131876 259:0.333333 260:-0.17662 261:0.00295421 262:-0.445727 263:0.043174 264:0.0891987 265:-0.425384 266:0.146465 267:-0.151752 268:0.0994764 269:0.108237 270:0.0639706 271:0.472521 272:0.749112 273:0.357556 274:0.170483 275:0.58814 276:0.269082 277:-0.237611 278:-0.167049 279:-0.957111 280:-0.697479 281:-0.633735 282:-0.656968 283:-0.602649 284:-0.219966 285:-0.178679 286:-0.235644 287:-0.255955 288:-0.0802416 289:0.636294 290:0.382704 291:0.082404 292:-0.395286 293:-0.0987221 294:-0.58403 295:-0.614016 296:-0.979752 302:-0.979167 303:-0.949458 304:-0.769111 305:0.0609626 306:-0.504658 307:-1 308:-1 310:-1 311:-1 312:-0.951923 313:-0.895118 314:-0.448622 315:0.365746 316:-0.620438 317:-1 318:-1 319:-0.6 320:-0.733333 321:-0.481481 322:-0.772727 323:-0.605078 324:0.0353228 325:0.362832 326:-0.767521 327:-0.980392 328:-0.697917 329:-0.349398 330:0.308176 331:0.0646154 332:-0.389831 333:-0.181298 334:0.207547 335:0.172897 336:-0.741176 337:-0.847569 338:-0.276725 339:-0.0727101 340:-0.171769 341:-0.301501 342:-0.353508 343:-0.113971 344:0.128788 345:-0.440938 346:-0.867069 347:-0.660964 348:0.285714 349:0.20298 350:-0.194 351:-0.487983 352:-0.0996785 353:0.178295 354:-0.210084 355:-0.809524 356:-1 357:-0.56791 358:0.388551 359:0.0909091 360:-0.597685 361:-0.792271 362:0.1 363:-1 364:-1 365:-1 366:-1 367:-0.399838 368:0.229872 369:-0.585366 370:-0.863436 371:-0.965116 372:-1 373:-1 374:-1 375:-1 376:-1 377:-0.313235 378:-0.190669 379:-0.837937 380:-0.974359 381:-1 382:-1 386:-1 387:-0.827869 388:-0.305164 389:0.125 390:-0.0418605 391:-0.444613 392:-0.426357 393:-0.0595483 394:0.0523256 395:-0.368635 396:-0.936508 397:-0.190935 398:0.123697 399:0.894089 400:0.680508 401:-0.563107 402:-0.00117233 403:0.449711 404:0.060585 405:-0.259887 406:-0.0945274 407:-0.113924 408:-0.369179 409:-0.546512 410:-0.749734 411:-0.478289 412:-0.00519007 413:-0.365658 414:0.0527671 415:-0.16782 416:-0.515695 417:-0.261206 418:-0.398268 419:0.627313 420:0.0883191 421:-0.216749 422:-0.0671642 423:0.107254 424:-0.49375 425:-0.643623 426:-0.595435 427:-0.644601 428:-0.00809717 429:0.549712 430:0.618153 431:-0.178295 432:-0.168525 433:0.0249267 434:0.329472 435:0.37127 436:-0.0917127 437:-0.339645 438:-0.0911105 439:-0.528455 440:-0.710924 441:-0.539146 442:0.288127 443:0.298039 444:-0.640039 
8 6:-0.968454 7:-0.198864 8:-0.0408602 9:-0.760518 10:-1 16:-0.812991 17:0.496907 18:-0.474847 19:-0.935929 20:-1 25:-0.333333 26:-0.805224 27:-0.11526 28:-0.279446 29:-0.718901 30:-0.975207 31:-1 32:-1 33:-0.75 34:-0.535181 35:-0.0345238 36:-0.0258989 37:0.526231 38:-0.444698 39:-0.939109 40:-1 41:-0.976744 42:-0.631201 43:-0.437145 44:-0.197414 45:0.115486 46:0.284116 47:0.158262 48:-0.56064 49:-0.95865 50:-0.998383 51:-0.979727 52:-0.607981 53:-0.316216 54:0.40104 55:0.297984 56:0.343651 57:-0.775142 58:-0.989575 59:-0.999756 60:-1 61:-0.983318 62:-0.76268 63:-0.281817 64:0.581507 65:0.0266869 66:0.297513 67:-0.990783 68:-1 69:-1 70:-1 71:-0.988468 72:-0.926394 73:-0.755698 74:-0.184319 75:-0.0381208 76:-0.570573 77:-1 78:-1 79:-1 80:-1 81:-0.996304 82:-0.955929 83:-0.852829 84:-0.16807 85:-0.290832 86:-0.903841 91:-1 92:-1 93:-0.661972 94:-0.515152 95:-0.06847 96:0.205559 97:-0.239521 98:-0.83174 99:-0.996186 100:-1 101:-0.094021 102:0.219306 103:0.213233 104:0.457277 105:-0.117647 106:-0.166462 107:0.382115 108:0.700785 109:0.377606 110:0.254427 111:0.243354 112:0.248473 113:-0.0323488 114:-0.236925 115:0.0496065 116:-0.0571211 117:0.277518 118:0.294391 119:0.284502 120:-0.205882 121:0.136705 122:0.358403 123:0.709977 124:0.353465 125:0.186207 126:0.217021 127:0.294782 128:-0.164051 129:-0.215581 130:-0.049428 131:-0.615977 132:-0.261042 133:0.0338826 134:0.0580687 135:0.0711225 136:-0.11534 137:0.0694905 138:0.148624 139:0.617139 140:0.268354 141:0.155045 142:0.423258 143:-0.0196045 144:-0.259518 145:0.000189239 146:-0.201123 147:-0.176386 148:-0.575709 154:-0.940959 155:-0.565704 156:0.00991609 157:0.166545 158:-0.711498 159:-1 160:-1 161:-1 162:-1 163:-1 164:-0.882813 165:-0.266366 166:0.238636 167:-0.0951923 168:-0.823096 169:-1 170:-1 171:-1 172:-0.6 173:0.28 174:-0.56189 175:0.139893 176:0.556696 177:-0.184871 178:-0.835468 179:-0.990719 180:-0.784091 181:-0.429098 182:0.179039 183:0.789474 184:-0.075146 185:0.577176 186:0.386162 187:-0.283605 188:-0.898228 189:-0.762677 190:-0.45628 191:-0.026738 192:0.130901 193:-0.1689 194:-0.215239 195:0.128286 196:-0.191863 197:-0.498214 198:-0.969163 199:-0.618764 200:-0.150128 201:0.438339 202:0.444088 203:-0.134248 204:0.412929 205:0.00891266 206:-0.630027 207:-0.906475 208:-1 209:-0.740754 210:0.00907029 211:0.560952 212:0.0819897 213:-0.491956 214:-0.0384615 215:-0.818182 216:-1 217:-1 218:-1 219:-0.735119 220:0.173992 221:0.358134 222:-0.320293 223:-0.815059 224:-1 225:-1 226:-1 228:-1 229:-0.652803 230:0.373234 231:0.188948 232:-0.547672 233:-0.930108 234:-1 239:-0.94697 240:-0.541219 241:0.102967 242:0.602305 243:0.082544 244:0.0156152 245:0.358189 246:-0.153179 247:-0.680115 248:-0.948598 249:0.253559 250:-0.104231 251:0.524884 252:0.471569 253:0.169533 254:0.535742 255:0.518039 256:0.398083 257:0.681669 258:0.517709 259:0.504 260:0.321636 261:0.33678 262:-0.17673 263:0.140349 264:0.193348 265:-0.132497 266:0.463384 267:0.337062 268:0.240838 269:0.413206 270:0.545588 271:0.384709 272:0.6 273:0.530966 274:0.368957 275:0.457251 276:0.417116 277:-0.143804 278:0.130791 279:-0.996388 280:-0.87395 281:-0.715663 282:-0.644717 283:-0.576159 284:-0.203046 285:-0.0630631 286:-0.214851 287:-0.175834 288:-0.00431406 289:0.674869 290:0.725727 291:0.181846 292:-0.200421 293:0.103497 294:-0.656911 295:-0.599323 296:-1 302:-1 303:-0.956679 304:-0.628705 305:0.189305 306:-0.354037 307:-1 308:-1 310:-1 311:-1 312:-0.951923 313:-0.793852 314:-0.253133 315:0.306077 316:-0.408759 317:-1 318:-0.333333 319:-1 320:-0.466667 321:-0.111111 322:-0.656566 323:-0.314528 324:0.19123 325:0.113078 326:-0.434188 327:-0.921569 328:-0.510417 329:-0.13253 330:0.509434 331:0.236923 332:-0.184322 333:0.124046 334:0.197617 335:-0.0342679 336:-0.527273 337:-0.731932 338:-0.396513 339:-0.301228 340:-0.207483 341:-0.282401 342:-0.270977 343:-0.305147 344:-0.363636 345:-0.54734 346:-0.752266 347:-0.355106 348:0.0599078 349:0.10987 350:-0.004 351:-0.339603 352:0.144695 353:-0.0852713 354:-0.193277 355:-0.698413 356:-0.7 357:-0.328642 358:0.417783 359:0.364954 360:-0.377713 361:-0.705314 362:-0.4 363:-0.714286 365:-1 366:-1 367:-0.364152 368:0.358226 369:-0.287263 370:-0.792952 371:-0.965116 372:-1 373:-1 374:-1 375:-1 376:-1 377:-0.3 378:0.0892495 379:-0.668508 380:-0.931624 381:-1 382:-1 386:-1 387:-0.766393 388:-0.140845 389:0.315476 390:0.353488 391:-0.204856 392:-0.206202 393:-0.0677618 394:0.180233 395:-0.303462 396:-0.78836 397:0.103147 398:-0.00317173 399:0.450739 400:0.190034 401:-0.271845 402:-0.186401 403:-0.153757 404:0.293175 405:0.324859 406:0.0248756 407:0.0632911 408:-0.131061 409:-0.238372 410:-0.663185 411:-0.40624 412:0.227521 413:-0.00800712 414:0.377091 415:-0.000865052 416:-0.488789 417:0.0695518 418:-0.264069 419:0.14231 420:0.270655 421:0.00985222 422:0.0671642 423:-0.0912328 424:-0.20625 425:-0.635866 426:-0.38843 427:-0.435211 428:0.238866 429:0.396878 430:0.644757 431:-0.0775194 432:-0.17377 433:-0.268328 434:0.40991 435:0.172797 436:0.0740331 437:-0.288363 438:-0.0861257 439:-0.362897 440:-0.662078 441:-0.405694 442:0.464696 443:0.578513 444:-0.377337 
-3.5376802055273431 6:-0.981073 7:-0.372159 8:0.802151 9:-0.63754 10:-1 16:-0.940757 17:-0.019244 18:0.0764826 19:-0.83933 20:-1 25:-1 26:-0.726428 27:0.414773 28:0.382217 29:-0.563813 30:-0.983471 31:-1 32:-1 33:-0.55 34:-0.0831557 35:0.727381 36:-0.306625 37:0.627363 38:0.122293 39:-0.900999 40:-0.999493 41:-0.991432 42:-0.619345 43:-0.0218992 44:0.53972 45:0.502147 46:0.198594 47:0.713106 48:-0.240783 49:-0.945896 50:-0.998922 51:-0.98438 52:-0.498575 53:0.263946 54:1 55:-0.0465401 56:-0.261396 57:-0.592123 58:-0.957932 59:-0.99878 60:-1 61:-0.974513 62:-0.55044 63:0.281279 64:0.436235 65:-0.570346 66:-0.309947 67:-0.97235 68:-1 69:-1 70:-1 71:-0.991763 72:-0.866137 73:-0.488327 74:-0.273678 75:-0.705772 76:-0.844311 77:-0.994969 78:-1 79:-1 80:-0.99686 81:-0.99384 82:-0.887178 83:-0.728633 84:-0.57798 85:-0.846876 86:-0.965188 91:-1 92:-0.914894 93:-0.239437 94:0.043771 95:0.0549451 96:-0.226854 97:0.0553892 98:-0.567878 99:-0.984743 100:-1 101:-0.448337 102:0.509797 103:0.0597054 104:0.906099 105:-0.205882 106:-0.224877 107:0.454189 108:0.695793 109:0.495357 110:0.509786 111:0.570552 112:0.762932 113:0.212377 114:-0.0837148 115:0.128297 116:-0.356139 117:0.506104 118:-0.112949 119:0.722913 120:0.176471 121:-0.202658 122:0.173493 123:0.731755 124:0.698377 125:0.305172 126:0.8 127:0.817186 128:0.0756063 129:-0.0784937 130:-0.0525883 131:-0.861155 132:-0.627962 133:-0.392987 134:-0.220295 135:0.614396 136:-0.34261 137:-0.111638 138:-0.257245 139:0.790317 140:0.429536 141:0.365611 142:0.830208 143:0.712182 144:-0.109842 145:0.038037 146:-0.657408 147:-0.630931 148:-0.872429 154:-1 155:-0.936626 156:-0.661327 157:0.569455 158:-0.409059 159:-1 160:-1 161:-1 162:-1 163:-1 164:-0.990234 165:-0.875847 166:-0.270202 167:0.560577 168:-0.616708 169:-1 170:-1 171:-1 172:-0.4 173:-0.2 174:-0.878954 175:-0.629183 176:0.421372 177:0.542876 178:-0.749754 179:-0.976798 180:-0.522727 181:-0.00184162 182:0.668122 183:0.325 184:-0.555873 185:0.0375242 186:0.924826 187:0.311246 188:-0.837165 189:-0.787018 190:-0.0208374 191:0.75072 192:0.274678 193:-0.432184 194:-0.443819 195:0.425747 196:0.460573 197:-0.0794643 198:-0.980176 199:-0.5141 200:0.591229 201:0.863736 202:-0.0514803 203:-0.607748 204:0.0131926 205:0.43672 206:-0.120643 207:-0.81295 208:-1 209:-0.518858 210:0.938776 211:0.2 212:-0.639794 213:-0.879763 214:-0.307692 215:-0.636364 216:-1 217:-1 218:-1 219:-0.439484 220:0.766406 221:-0.398487 222:-0.896088 223:-0.98679 224:-1 225:-1 226:-1 228:-1 229:-0.224834 230:0.421446 231:-0.670232 232:-0.95122 233:-1 234:-1 239:-0.859848 240:0.0752688 241:0.455497 242:0.0720461 243:-0.469553 244:-0.470331 245:0.0545939 246:0.291908 247:-0.276657 248:-0.939252 249:-0.0681624 250:-0.0171402 251:0.431984 252:0.76165 253:0.120393 254:0.724827 255:0.331699 256:0.28415 257:0.257774 258:0.564431 259:0.152 260:0.64972 261:0.29099 262:-0.0711855 263:0.106549 264:0.0395879 265:-0.0195258 266:0.207071 267:0.644787 268:0.0575916 269:0.377808 270:0.139706 271:0.278425 272:0.450888 273:0.843105 274:0.0534351 275:0.758059 276:0.595991 277:-0.0729696 278:-0.0507745 279:-1 280:-0.941176 281:-0.893976 282:-0.92343 283:-0.913907 284:-0.532995 285:-0.605105 286:-0.590099 287:-0.575141 288:-0.465056 289:0.617199 290:0.689302 291:0.677509 292:-0.107238 293:-0.00624912 294:-0.750679 295:-0.736555 296:-1 302:-1 303:-1 304:-0.984399 305:-0.687701 306:0.360248 307:-1 308:-1 310:-1 311:-1 312:-1 313:-0.98915 314:-0.922306 315:-0.0961326 316:0.541971 317:-1 318:-1 319:-1 320:-0.6 321:-0.555556 322:-0.863636 323:-0.844852 324:-0.559074 325:0.585054 326:0.0598291 327:-0.872549 328:-0.239583 329:0.277108 330:0.672956 331:-0.206154 332:-0.694915 333:-0.561069 334:-0.153923 335:0.649533 336:-0.234225 337:-0.55979 338:0.266111 339:-0.133144 340:-0.370748 341:-0.587995 342:-0.605227 343:-0.485294 344:0.0454545 345:-0.134355 346:-0.691843 347:-0.0368066 348:0.835637 349:-0.173184 350:-0.576 351:-0.763845 352:-0.466238 353:0.0542636 354:0.193277 355:-0.52381 356:-0.9 357:0.359606 358:0.53715 359:-0.615283 360:-0.872648 361:-0.951691 362:0.1 363:-0.714286 364:-1 365:-1 366:-1 367:0.57502 368:-0.255543 369:-0.945799 370:-0.977974 371:-0.988372 372:-1 373:-1 374:-1 375:-1 376:-1 377:0.313235 378:-0.768763 379:-0.992634 380:-1 381:-1 382:-1 386:-1 387:-0.397541 388:0.422535 389:0.0654762 390:-0.427907 391:-0.672231 392:-0.596899 393:-0.457906 394:0.116279 395:0.543788 396:-0.481481 397:-0.438036 398:0.382873 399:0.477833 400:0.843674 401:-0.0970874 402:0.186401 403:0.0566474 404:0.163649 405:0.669492 406:0.751244 407:0.485232 408:0.721555 409:0.569767 410:-0.463654 411:-0.0247668 412:-0.23215 413:0.387011 414:0.364221 415:0.568339 416:-0.282511 417:0.0819165 418:-0.21645 419:0.0542438 420:0.925926 421:1 422:0.470149 423:0.612817 424:0.65 425:-0.443304 426:-0.046832 427:-0.935681 428:-0.565789 429:-0.171734 430:0.305164 431:0.577519 432:-0.102951 433:-0.244868 434:-0.210425 435:0.596114 436:0.882873 437:0.0453649 438:0.726945 439:0.365854 440:-0.463588 441:-0.0402135 442:-0.336742 443:-0.255935 444:-0.966455 
-8 6:-0.993691 7:-0.616477 8:0.926882 9:-0.449838 10:-1 16:-0.982156 17:0.125086 18:0.245808 19:-0.83243 20:-1 25:-1 26:-0.880478 27:0.0803571 28:0.630485 29:-0.250404 30:-1 31:-1 32:-0.9 33:-0.525 34:0.147122 35:0.459524 36:-0.365591 37:0.789415 38:0.168049 39:-0.881997 40:-0.999239 41:-0.988984 42:-0.488924 43:0.0209673 44:0.338788 45:0.213598 46:0.0768052 47:0.677973 48:-0.239433 49:-0.950833 50:-1 51:-0.981722 52:-0.342688 53:0.309083 54:0.918207 55:-0.0407463 56:-0.0665098 57:-0.59037 58:-0.980622 59:-1 60:-0.999359 61:-0.979147 62:-0.513008 63:0.402231 64:0.625757 65:-0.448257 66:-0.0950266 67:-1 68:-1 69:-1 70:-1 71:-0.983526 72:-0.842684 73:-0.531406 74:-0.216179 75:-0.533557 76:-0.770174 77:-1 78:-1 79:-1 80:-0.993721 81:-0.996192 82:-0.901073 83:-0.741187 84:-0.388384 85:-0.739108 86:-0.963167 91:-1 92:-1 93:-0.577465 94:0.0639731 95:-0.0515638 96:-0.106659 97:0.326347 98:-0.53601 99:-0.993643 100:-1 101:-0.40137 102:0.30673 103:-0.0224864 104:0.719572 105:0.441176 106:-0.336397 107:0.49894 108:0.771781 109:0.961451 110:0.608574 111:0.783231 112:0.574942 113:0.707454 114:-0.107061 115:0.428203 116:-0.393276 117:0.401824 118:-0.0403205 119:0.575293 120:0.411765 121:-0.145318 122:0.582595 123:0.800255 124:0.940653 125:0.477586 126:0.642553 127:0.593307 128:0.449358 129:-0.0610123 130:0.321598 131:-0.892217 132:-0.702281 133:-0.450106 134:-0.328183 135:0.590403 136:-0.411694 137:-0.0680154 138:-0.322877 139:0.558799 140:0.532489 141:0.707851 142:0.583665 143:0.642411 144:-0.114508 145:0.375008 146:-0.673028 147:-0.684188 148:-0.905674 154:-1 155:-0.880708 156:-0.54386 157:0.605818 158:-0.251568 159:-1 160:-1 161:-1 162:-1 163:-1 164:-0.984375 165:-0.760722 166:-0.146465 167:0.531731 168:-0.472973 169:-1 170:-1 171:0.333333 172:-0.2 173:0.44 174:-0.820383 175:-0.432396 176:0.524032 177:0.606782 178:-0.652217 179:-0.986079 180:-0.494318 181:0.104972 182:0.691412 183:0.293421 184:-0.486048 185:0.104062 186:0.819009 187:0.271488 188:-0.815303 189:-0.773834 190:-0.125998 191:0.451255 192:0.0797568 193:-0.488785 194:-0.495489 195:0.135475 196:0.296334 197:-0.140179 198:-0.944934 199:-0.455531 200:0.546095 201:0.761172 202:0.000188573 203:-0.553941 204:0.143799 205:0.511586 206:-0.131367 207:-0.798561 208:-1 209:-0.450751 210:0.873772 211:0.402857 212:-0.503945 213:-0.817104 215:-0.454545 216:-1 217:-1 218:-1 219:-0.310516 220:0.874774 221:-0.247163 222:-0.815403 223:-0.968296 224:-1 225:-1 226:-1 228:-1 229:-0.0705244 230:0.448047 231:-0.590018 232:-0.902439 233:-0.994624 234:-1 239:-0.844697 240:0.100358 241:0.588133 242:0.345821 243:-0.341001 244:-0.321674 245:0.302264 246:0.393064 247:-0.149856 248:-0.911215 249:0.160664 250:-0.109172 251:0.52223 252:0.492518 253:0.267813 254:0.609531 255:0.44028 256:0.347733 257:0.737316 258:0.537302 259:0.376 260:0.388437 261:0.487445 262:-0.151111 263:0.186691 264:0.118876 265:-0.112273 266:0.444444 267:0.400591 268:0.272251 269:0.406399 270:0.611765 271:0.337926 272:0.57002 273:0.725846 274:0.175573 275:0.476226 276:0.640709 277:-0.143215 278:0.154824 279:-1 280:-0.983193 281:-0.903614 282:-0.8683 283:-0.84106 284:-0.477157 285:-0.454955 286:-0.568317 287:-0.510611 288:-0.387403 289:0.737024 290:0.722591 291:0.29368 292:-0.183716 293:0.140289 294:-0.680924 295:-0.670014 296:-1 302:-1 303:-0.99278 304:-0.934477 305:-0.394652 306:0.388199 307:-1 308:-1 310:-1 311:-1 312:-1 313:-0.974684 314:-0.786967 315:0.18011 316:0.498175 317:-1 318:-1 319:-0.2 320:0.333333 321:-0.185185 322:-0.848485 323:-0.681241 324:-0.415347 325:0.612586 326:-0.0205128 327:-0.941176 328:-0.354167 329:0.192771 330:0.333333 331:-0.273846 332:-0.67161 333:-0.473282 334:-0.132075 335:0.434579 336:-0.321925 337:-0.697766 338:-0.0917362 339:-0.246459 340:-0.518707 341:-0.616644 342:-0.631362 343:-0.538603 344:-0.20202 345:-0.34716 346:-0.8429 347:-0.153966 348:0.499232 349:-0.124767 350:-0.544 351:-0.682341 352:-0.0546624 353:0.596899 354:0.260504 355:-0.698413 356:-1 357:0.168191 358:0.693057 359:-0.4361 360:-0.745297 361:-0.864734 362:-0.3 363:-0.428571 364:-1 365:-1 366:-1 367:0.50365 368:-0.00583431 369:-0.840108 370:-0.955947 371:-1 372:-1 373:-1 374:-1 375:-1 376:-1 377:0.457353 378:-0.612576 379:-0.948435 380:-1 381:-1 382:-1 386:-1 387:-0.418033 388:0.539906 389:0.494048 390:-0.0372093 391:-0.508346 392:-0.392248 393:-0.137577 394:0.337209 395:0.336049 396:-0.529101 397:-0.262159 398:0.0521069 399:0.608374 400:0.510503 401:0.145631 402:0.003517 403:0.160694 404:0.164345 405:0.824859 406:0.626866 407:0.662447 408:0.31349 409:0.19186 410:-0.502452 411:-0.0106143 412:-0.127367 413:0.123665 414:0.637066 415:0.361592 416:-0.0762332 417:0.205564 418:0.0865801 419:0.0772176 420:0.866097 421:0.669951 422:0.664179 423:0.287939 424:0.6 425:-0.55008 426:0.0413223 427:-0.85759 428:-0.38664 429:0.0336894 430:0.460094 431:0.658915 432:-0.137049 433:-0.0645161 434:-0.0791506 435:0.489244 436:0.770166 437:0.0690335 438:0.381889 439:0.0214339 440:-0.535746 441:0.00747331 442:-0.0896 443:-0.000835872 444:-0.887457 
-3.6371086137128863 6:-0.987382 7:-0.784091 8:-0.2 9:-0.514563 10:-0.980769 16:-0.983583 17:-0.309966 18:0.0143149 19:-0.485461 20:-0.985972 25:-1 26:-0.951306 27:-0.576299 28:-0.435335 29:-0.735057 30:-1 31:-1 32:-1 33:-0.925 34:-0.71855 35:-0.52381 36:-0.645277 37:0.347724 38:0.485667 39:-0.642753 40:-0.992391 41:-0.99388 42:-0.75351 43:-0.464356 44:-0.205155 45:-0.218314 46:-0.102319 47:0.700755 48:0.0595669 49:-0.811561 50:-0.996226 51:-0.965769 52:-0.392896 53:0.146875 54:0.768653 55:-0.151898 56:0.188097 57:0.127681 58:-0.626663 59:-0.920488 60:-0.997758 61:-0.931418 62:-0.129328 63:0.670206 64:0.618034 65:-0.57007 66:0.089698 67:-0.769585 68:-1 69:-1 70:-1 71:-0.906919 72:-0.468519 73:0.0872707 74:0.293342 75:-0.526846 76:-0.358996 77:-0.790476 78:-0.972364 79:-0.998324 80:-0.99686 81:-0.938179 82:-0.477368 83:-0.328412 84:-0.168401 85:-0.730096 86:-0.75278 91:-1 92:-0.957447 93:-0.295775 94:-0.333333 95:-0.440406 96:-0.439812 97:0.10479 98:-0.226259 99:-0.894469 100:-1 101:-0.250019 102:0.434884 103:0.0821918 104:0.569841 105:-0.176471 106:-0.190972 107:0.348669 108:0.539082 109:0.30191 110:0.315937 111:0.0388548 112:0.513053 113:0.0604782 114:-0.0590435 115:0.107775 116:-0.151589 117:0.507745 118:-0.0392866 119:0.38508 120:0.0735294 121:-0.128584 122:0.153852 123:0.569773 124:0.435154 125:0.181034 126:-0.0425532 127:0.529389 128:0.0927247 129:-0.134773 130:0.0254093 131:-0.752827 132:-0.383868 133:-0.152007 134:-0.00962357 135:0.108826 136:-0.253506 137:-0.0126969 138:0.000688927 139:0.61801 140:0.195781 141:0.0444266 142:0.679614 143:0.203407 144:-0.12278 145:0.0666751 146:-0.370521 147:-0.315319 148:-0.771832 154:-0.99262 155:-0.912395 156:-0.595728 157:0.346909 158:-0.516376 159:-1 160:-1 161:-1 162:-1 163:-1 164:-0.970703 165:-0.805869 166:-0.27904 167:0.2625 168:-0.686732 169:-1 170:-1 171:-1 172:-0.8 173:-0.04 174:-0.827411 175:-0.543507 176:0.384974 177:0.368764 178:-0.757635 179:-0.981439 180:-0.539773 181:-0.0128913 182:0.531295 183:0.178947 184:-0.503958 185:0.16441 186:1 187:0.283226 188:-0.82435 189:-0.787018 190:-0.103019 191:0.605923 192:0.318312 193:-0.403432 194:-0.372407 195:0.604134 196:0.547966 197:-0.114286 198:-0.964758 199:-0.465293 200:0.525608 201:0.808059 202:-0.0209315 203:-0.552596 204:0.114776 205:0.532977 206:-0.254692 207:-0.848921 208:-0.98995 209:-0.430245 210:0.689342 211:0.147619 212:-0.643911 213:-0.858594 214:-0.153846 215:-0.818182 216:-0.6 217:-1 218:-1 219:-0.330357 220:0.413606 221:-0.461538 222:-0.877751 223:-0.96037 224:-1 225:-1 226:-1 228:-1 229:-0.187462 230:0.208645 231:-0.668449 232:-0.935698 233:-0.994624 234:-1 239:-0.765152 240:0.136201 241:0.144852 242:-0.054755 243:-0.484438 244:-0.479076 245:0.011984 246:0.216763 247:-0.475504 248:-0.929907 249:0.0370662 250:0.00926498 251:0.402787 252:0.579949 253:-0.0614251 254:0.508071 255:0.419965 256:0.227867 257:0.379705 258:0.388093 259:-0.141333 260:0.446147 261:0.257016 262:0.0391621 263:0.17296 264:0.120667 265:0.0771269 266:0.241162 267:0.449346 268:-0.115183 269:0.262083 270:0.282353 271:0.237547 272:0.504536 273:0.60033 274:-0.0636132 275:0.572399 276:0.400154 277:-0.0389515 278:0.0235466 279:-1 280:-0.92437 281:-0.826506 282:-0.8683 283:-0.774834 284:-0.450085 285:-0.447447 286:-0.613861 287:-0.484192 288:-0.32528 289:0.551326 290:0.596671 291:0.418835 292:-0.030686 293:0.0666339 294:-0.775957 295:-0.747224 296:-1 302:-1 303:-1 304:-0.984399 305:-0.6 306:0.0807453 307:-1 308:-1 310:-1 311:-1 312:-1 313:-0.96745 314:-0.914787 315:-0.100552 316:0.20073 317:-1 318:-1 319:-0.6 320:-0.333333 321:-0.185185 322:-0.863636 323:-0.819464 324:-0.544458 325:0.508358 326:-0.0581197 327:-0.892157 328:-0.208333 329:0.590361 330:0.383648 331:-0.273846 332:-0.614407 333:-0.459924 334:0.0625621 335:0.901869 336:-0.253476 337:-0.592641 338:0.228203 339:0.0273843 340:-0.253401 341:-0.504775 342:-0.491059 343:-0.222426 344:0.330808 345:-0.0586114 346:-0.728097 347:0.0388802 348:0.83871 349:-0.163873 350:-0.504 351:-0.671891 352:-0.26045 353:0.51938 354:0.092437 355:-0.47619 356:-0.9 357:0.31316 358:0.334957 359:-0.604743 360:-0.797395 361:-0.917874 363:-1 364:-1 365:-1 366:-1 367:0.331711 368:-0.393232 369:-0.924119 370:-0.977974 371:-1 372:-1 373:-1 374:-1 375:-1 376:-1 377:0.142647 378:-0.821501 379:-0.970534 380:-1 381:-1 382:-1 386:-1 387:-0.479508 388:0.0422535 389:-0.0297619 390:-0.311628 391:-0.608498 392:-0.699225 393:-0.556468 394:0.0697674 395:0.0386965 396:-0.597884 397:-0.403704 398:0.370186 399:0.399015 400:0.601368 401:-0.300971 402:0.233294 403:0.0936416 404:0.185237 405:0.460452 406:0.383085 407:0.232068 408:0.546807 409:0.354651 410:-0.333191 411:0.0466388 412:-0.234535 413:0.537367 414:0.384813 415:0.441176 416:-0.309417 417:0.125193 418:0.0519481 419:0.141034 420:0.726496 421:0.458128 422:-0.0671642 423:0.514019 424:0.4 425:-0.382158 426:-0.0586383 427:-0.913928 428:-0.521255 429:-0.152013 430:0.084507 431:0.27907 432:-0.0583607 433:-0.0953079 434:-0.195624 435:0.58848 436:0.465193 437:-0.0351085 438:0.61008 439:0.132299 440:-0.366119 441:-0.00604982 442:-0.397245 443:-0.395587 444:-0.953388 
8 6:-0.981073 7:-0.0852273 8:0.277419 9:-0.97411 10:-1 16:-0.85439 17:0.499656 18:-0.441309 19:-0.985214 20:-1 25:-1 26:-0.667995 27:0.363636 28:-0.210162 29:-0.919225 30:-0.991736 31:-1 32:-1 33:-0.95 34:-0.701493 35:0.425 36:-0.0166493 37:0.754472 38:-0.499694 39:-0.987692 40:-0.999239 41:-1 42:-0.947582 43:-0.63489 44:0.00246327 45:0.53801 46:0.404919 47:0.231089 48:-0.778419 49:-0.998149 50:-1 51:-1 52:-0.902653 53:-0.413113 54:0.713519 55:0.341645 56:0.0572649 57:-0.803892 58:-0.999019 59:-1 60:-0.999039 61:-1 62:-0.928505 63:-0.309233 64:0.602588 65:-0.217675 66:-0.123446 67:-1 68:-1 69:-1 70:-1 71:-1 72:-0.97799 73:-0.77682 74:-0.197511 75:-0.347651 76:-0.699268 77:-1 78:-1 79:-1 80:-1 81:-0.999552 82:-0.986208 83:-0.847302 84:-0.287531 85:-0.59857 86:-0.937958 91:-1 92:-1 93:-0.971831 94:-0.488215 95:-0.00253593 96:0.0925826 97:-0.14521 98:-0.877629 99:-0.997457 100:-1 101:-0.149962 102:0.526568 103:0.263376 104:0.600893 105:-0.279412 106:-0.101511 107:0.189919 108:0.562719 109:0.186613 110:0.237651 111:0.210634 112:0.42322 113:-0.218003 114:-0.191144 115:-0.198552 116:-0.156302 117:0.418231 118:0.215301 119:0.377614 120:-0.338235 121:0.177802 122:0.19984 123:0.649573 124:0.177169 125:0.210345 126:0.212766 127:0.598279 128:-0.35806 129:-0.0801866 130:-0.230011 131:-0.684534 132:-0.306063 133:0.00971694 134:0.0753519 135:0.211654 136:-0.0613278 137:-0.00763922 138:0.129426 139:0.793222 140:0.244726 141:-0.0912138 142:0.762881 143:-0.0392946 144:-0.170192 145:-0.21425 146:-0.311802 147:-0.310192 148:-0.684516 154:-0.97786 155:-0.776328 156:-0.244851 157:0.496727 158:-0.78676 159:-1 160:-1 161:-1 162:-1 163:-0.666667 164:-0.923828 165:-0.581264 166:0.309343 167:0.114423 168:-0.895577 169:-1 170:-1 171:-1 172:-1 174:-0.692308 175:-0.123159 176:0.840411 177:-0.0674927 178:-0.95665 179:-0.99536 180:-0.954545 181:-0.462247 182:0.368268 183:0.598684 184:-0.232446 185:0.532689 186:0.768255 187:-0.351382 188:-0.975876 189:-0.972617 190:-0.633885 191:0.192925 192:0.432403 193:-0.17176 194:-0.189327 195:0.455403 196:-0.0341537 197:-0.720536 198:-0.997797 199:-0.906182 200:-0.0867478 201:0.942857 202:0.486706 203:-0.314501 204:0.414248 205:0.269162 206:-0.52815 207:-0.964029 208:-1 209:-0.884291 210:0.349962 211:0.784762 212:-0.17187 213:-0.709568 214:0.0769231 215:-0.818182 216:-1 217:-1 218:-1 219:-0.831349 220:0.436484 221:0.131148 222:-0.603912 223:-0.915456 224:-1 225:-1 226:-1 228:-1 229:-0.714286 230:0.597672 231:-0.210339 232:-0.789357 233:-0.973118 234:-1 239:-0.981061 240:-0.501792 241:0.144852 242:0.314121 243:-0.170501 244:-0.193004 245:0.30759 246:-0.0289017 247:-0.659942 248:-0.990654 249:0.133766 250:0.110408 251:0.49436 252:0.694955 253:0.238329 254:0.637202 255:0.207706 256:0.248859 257:0.388707 258:0.550867 259:0.104 260:0.425219 261:0.38257 262:-0.0994729 263:0.0289147 264:0.0325326 265:-0.0542538 266:0.425505 267:0.418109 268:0.0890052 269:0.449966 270:0.282353 271:0.261469 272:0.342012 273:0.653179 274:0.19084 275:0.67159 276:0.525058 277:0.0641337 278:0.0623046 279:-0.998646 280:-0.941176 281:-0.821687 282:-0.739663 283:-0.721854 284:-0.282572 285:-0.378378 286:-0.434653 287:-0.339108 288:-0.206212 289:0.525695 290:0.772042 291:0.390489 292:-0.0534917 293:0.00961944 294:-0.713422 295:-0.688816 296:-1 302:-1 303:-1 304:-0.912637 305:-0.0566845 306:-0.223602 307:-1 308:-1 310:-1 311:-1 312:-0.971154 313:-0.920434 314:-0.573935 315:0.498343 316:-0.332117 317:-1 318:-1 319:-0.6 320:-0.333333 321:-0.037037 322:-0.777778 323:-0.602257 324:-0.0401949 325:0.722714 326:-0.637607 327:-0.980392 328:-0.75 329:0.0120482 330:0.72327 331:0.0523077 332:-0.366525 333:-0.196565 334:0.330685 335:0.457944 336:-0.734759 337:-0.892247 338:-0.20091 339:0.157696 340:-0.0816327 341:-0.289222 342:-0.301238 343:-0.112132 344:0.0555556 345:-0.549143 346:-0.945619 347:-0.582167 348:0.711214 349:0.314711 350:-0.126 351:-0.469175 352:-0.0418006 353:0.457364 354:-0.226891 355:-0.793651 356:-0.9 357:-0.328642 358:1 359:-0.172596 360:-0.652677 361:-0.768116 362:-0.5 363:-0.142857 364:-1 365:-1 366:-1 367:-0.240876 368:0.369895 369:-0.674797 370:-0.933921 371:-0.988372 372:-1 373:-1 374:-1 375:-1 376:-1 377:-0.133824 378:-0.290061 379:-0.893186 380:-0.982906 381:-1 382:-1 386:-1 387:-0.82377 388:-0.0469484 389:0.291667 390:-0.0651163 391:-0.468892 392:-0.413953 393:-0.112936 394:0.215116 395:-0.144603 396:-0.862434 397:-0.110827 398:0.468056 399:0.376847 400:0.476307 401:-0.262136 402:0.00820633 403:-0.29711 404:0.181058 405:0.288136 406:0.338308 407:0.223629 408:0.334614 409:-0.232558 410:-0.538265 411:-0.451914 412:-0.0293169 413:0.285587 414:0.356499 415:0.257785 416:-0.488789 417:0.217929 418:-0.341991 419:0.2291 420:0.441595 421:0.384236 422:0.0820896 423:0.360036 424:-0.075 425:-0.435546 426:-0.422275 427:-0.729421 428:0.0101215 429:0.293344 430:0.688576 431:0.267442 432:-0.0255738 433:-0.341642 434:0.315315 435:0.549618 436:0.376796 437:-0.429586 438:0.484353 439:-0.383592 440:-0.499334 441:-0.446263 442:0.0835159 443:0.180797 444:-0.794536 
4.6811232183313223 6:-1 7:-0.579545 8:0.556989 9:-0.365696 10:-1 16:-0.967166 17:-0.163574 18:0.2409 19:-0.681617 20:-1 25:-1 26:-0.830899 27:-0.0876623 28:0.162818 29:-0.379645 30:-0.983471 31:-1 32:-0.9 33:-0.475 34:-0.0405117 35:0.486905 36:-0.471211 37:0.599168 38:0.324242 39:-0.814629 40:-0.999493 41:-0.986536 42:-0.50702 43:-0.0548877 44:0.321105 45:0.206745 46:0.0493638 47:0.758223 48:-0.0136801 49:-0.886443 50:-0.997844 51:-0.957129 52:-0.310239 53:0.287279 54:0.876362 55:-0.122722 56:-0.110547 57:-0.34354 58:-0.926657 59:-0.995366 60:-0.99968 61:-0.929564 62:-0.288789 63:0.52802 64:0.591108 65:-0.54692 66:-0.0275311 67:-0.917051 68:-1 69:-1 70:-1 71:-0.956343 72:-0.747429 73:-0.366037 74:-0.0673304 75:-0.613557 76:-0.711624 77:-0.996765 78:-1 79:-1 80:-1 81:-0.981297 82:-0.798725 83:-0.619439 84:-0.402147 85:-0.805616 86:-0.934799 91:-1 92:-0.744681 93:-0.323944 94:0.023569 95:-0.102282 96:-0.282801 97:0.215569 98:-0.412365 99:-0.958042 100:-1 101:-0.401264 102:0.430519 103:0.129491 104:0.74568 105:0.0147059 106:-0.224469 107:0.43142 108:0.629917 109:0.582618 110:0.567568 111:0.513292 112:0.713853 113:0.530239 114:-0.0308098 115:0.169783 116:-0.306118 117:0.548907 118:-0.0307573 119:0.628726 120:0.294118 121:-0.114064 122:0.125269 123:0.64193 124:0.789143 125:0.310345 126:0.434043 127:0.674098 128:0.169757 129:-0.0904819 130:0.0352696 131:-0.853943 132:-0.595179 133:-0.322349 134:-0.178003 135:0.525278 136:-0.320279 137:-0.127759 138:-0.204887 139:0.733285 140:0.427004 141:0.281856 142:0.767535 143:0.565705 144:-0.0862014 145:0.102662 146:-0.608983 147:-0.556193 148:-0.869254 154:-0.99631 155:-0.945946 156:-0.659802 157:0.554909 158:-0.261324 159:-1 160:-1 161:-1 162:-1 163:-1 164:-0.988281 165:-0.854402 166:-0.324495 167:0.490385 168:-0.474201 169:-1 170:-1 171:-1 172:-0.6 173:0.08 174:-0.875049 175:-0.550201 176:0.399907 177:0.626345 178:-0.614778 179:-0.990719 180:-0.397727 181:0.303867 182:0.703057 183:0.246053 184:-0.546528 185:0.0313346 186:0.889394 187:0.431276 188:-0.775349 189:-0.705882 190:-0.0500487 191:0.603867 192:0.229971 193:-0.510011 194:-0.477751 195:0.310267 196:0.453039 197:0.0133929 198:-0.962555 199:-0.434382 200:0.552497 201:0.746032 202:-0.154441 203:-0.606672 204:-0.0356201 205:0.361854 206:-0.0187668 207:-0.719424 208:-0.98995 209:-0.348956 210:0.910809 211:0.27619 212:-0.627444 213:-0.868755 214:-0.192308 215:-0.818182 216:-1 217:-1 218:-1 219:-0.184524 220:0.791692 221:-0.398487 222:-0.870416 223:-0.978864 224:-1 225:-1 226:-1 228:-1 229:-0.0102471 230:0.348296 231:-0.698752 232:-0.929047 233:-0.994624 234:-1 239:-0.723485 240:0.258065 241:0.602094 242:0.167147 243:-0.40866 244:-0.470331 245:0.105193 246:0.297688 247:-0.210375 248:-0.892523 249:-0.00255855 250:-0.0592959 251:0.581951 252:0.621206 253:-0.0614251 254:0.738663 255:0.391243 256:0.233343 257:0.279051 258:0.596081 259:0.173333 260:0.553536 261:0.481536 262:-0.0167456 263:0.167415 264:0.0952461 265:0.0206416 266:0.395202 267:0.561207 268:0.0890052 269:0.43499 270:0.150735 271:0.227252 272:0.50927 273:0.819983 274:-0.043257 275:0.60496 276:0.720894 277:-0.094323 278:0.0145169 279:-1 280:-0.966387 281:-0.908434 282:-0.877489 283:-0.768212 284:-0.543147 285:-0.612613 286:-0.635644 287:-0.5877 288:-0.437446 289:0.591311 290:0.660355 291:0.542751 292:-0.0854487 293:0.0591209 294:-0.734803 295:-0.700244 296:-1 302:-1 303:-1 304:-0.984399 305:-0.64492 306:0.360248 307:-1 308:-1 310:-1 311:-1 312:-1 313:-0.985533 314:-0.874687 315:-0.151381 316:0.489051 317:-1 318:-1 319:0.2 320:-0.333333 321:0.111111 322:-0.90404 323:-0.80536 324:-0.556638 325:0.606686 326:0.100855 327:-0.843137 328:0.0104167 329:0.542169 330:0.584906 331:-0.163077 332:-0.625 333:-0.490458 334:-0.145978 335:0.688474 336:-0.2 337:-0.666229 338:0.175133 339:-0.0311615 340:-0.404762 341:-0.597544 342:-0.631362 343:-0.487132 344:0.0479798 345:-0.127142 346:-0.685801 347:-0.093831 348:0.625192 349:-0.286778 350:-0.634 351:-0.747126 352:-0.4791 353:0.0697674 354:-0.0252101 355:-0.571429 356:-0.9 357:0.362421 358:0.56151 359:-0.591568 360:-0.86686 361:-0.879227 363:-1 364:-1 365:-1 366:-1 367:0.542579 368:-0.218203 369:-0.902439 370:-0.986784 371:-1 372:-1 373:-1 374:-1 375:-1 376:-1 377:0.398529 378:-0.768763 379:-0.98895 380:-1 381:-1 382:-1 386:-1 387:-0.204918 388:0.530516 389:0.202381 390:-0.311628 391:-0.666161 392:-0.677519 393:-0.425051 394:0.226744 395:0.462322 396:-0.439153 397:-0.414847 398:0.25691 399:0.445813 400:0.681485 401:-0.0485437 402:0.280188 403:0.0682081 404:0.152507 405:0.559322 406:0.781095 407:0.721519 408:0.636102 409:0.44186 410:-0.395012 411:0.0299132 412:-0.2062 413:0.330961 414:0.410553 415:0.519896 416:-0.0941704 417:0.125193 418:-0.140693 419:0.0574346 420:1 421:0.778325 422:0.223881 423:0.468625 424:0.86875 425:-0.458362 426:-0.0051161 427:-0.929264 428:-0.523279 429:-0.191454 430:0.215962 431:0.395349 432:-0.042623 433:-0.205279 434:-0.201416 435:0.566273 436:0.785635 437:0.0390533 438:0.600111 439:0.36881 440:-0.434725 441:0.0088968 442:-0.338258 443:-0.251318 444:-0.973312 
-2.6996886237830293 6:-1 7:-0.639205 8:1 9:-0.462783 10:-1 16:-0.981442 17:0.0123711 18:0.263804 19:-0.844258 20:-0.98998 25:-1 26:-0.833555 27:-0.0324675 28:0.167436 29:-0.279483 30:-0.991736 31:-1 32:-1 33:-0.475 34:0.142857 35:0.557143 36:-0.442941 37:0.912734 38:0.025661 39:-0.8983 40:-0.996956 41:-0.99388 42:-0.69298 43:-0.171559 44:0.216592 45:0.148101 46:0.0218567 47:0.527582 48:-0.408871 49:-0.95433 50:-0.995148 51:-0.979727 52:-0.652488 53:-0.024097 54:0.76238 55:-0.0453675 56:0.134485 57:-0.448723 58:-0.979886 59:-0.996341 60:-0.998719 61:-0.980074 62:-0.734232 63:0.194732 64:0.798998 65:-0.38634 66:0.119005 67:-0.990783 68:-1 69:-1 70:-1 71:-0.987644 72:-0.908714 73:-0.539466 74:0.172371 75:-0.345638 76:-0.476476 77:-0.999281 78:-1 79:-1 80:-0.993721 81:-0.995744 82:-0.938715 83:-0.661443 84:0.0878062 85:-0.565726 86:-0.850455 91:-1 92:-1 93:-0.408451 94:-0.0774411 95:-0.0143702 96:-0.271612 97:0.224551 98:-0.700446 99:-0.992371 100:-0.996491 101:-0.258509 102:0.136247 103:0.130008 104:0.50561 105:-0.117647 106:-0.221405 107:0.569129 108:0.924908 109:0.618013 110:0.384902 111:0.345603 112:0.480082 113:0.150492 114:-0.17507 115:0.142587 116:-0.244235 117:0.291367 118:0.150426 119:0.588741 120:0.205882 121:-0.0714901 122:0.637525 123:0.832717 124:0.584221 125:0.122414 126:0.485106 127:0.280031 128:0.0927247 129:-0.209535 130:0.261614 131:-0.817833 132:-0.528574 133:-0.188509 134:-0.0451064 135:0.383033 136:-0.269127 137:0.19372 138:-0.0401874 139:0.806875 140:0.351055 141:0.436098 142:0.516182 143:0.132523 144:-0.222384 145:0.201981 146:-0.511593 147:-0.431778 148:-0.853178 154:-0.97786 155:-0.841566 156:-0.39283 157:0.476364 158:-0.388153 159:-1 160:-1 161:-1 162:-1 163:-1 164:-0.949219 165:-0.698646 166:-0.0391414 167:0.349038 168:-0.570025 169:-1 170:-1 171:-1 172:-0.4 173:0.28 174:-0.77665 175:-0.358768 176:0.608959 177:0.34268 178:-0.712315 179:-0.986079 180:-0.505682 181:0.156538 182:0.804949 183:0.590789 184:-0.386372 185:0.252224 186:0.774958 187:0.0586899 188:-0.870335 189:-0.852941 190:-0.279455 191:0.44385 192:0.302217 193:-0.376788 194:-0.412663 195:0.162885 196:0.0532396 197:-0.386607 198:-0.969163 199:-0.660521 200:0.264725 201:0.784615 202:0.166887 203:-0.475652 204:0.221636 205:0.283422 206:-0.372654 207:-0.870504 208:-1 209:-0.653607 210:0.733938 211:0.625714 212:-0.359863 213:-0.796782 214:-0.0769231 215:-0.636364 216:-1 217:-1 218:-1 219:-0.574405 220:0.822998 221:-0.0113493 222:-0.687042 223:-0.936592 224:-1 225:-1 226:-1 228:-1 229:-0.393611 230:0.667498 231:-0.333333 232:-0.864745 233:-0.978495 234:-1 239:-0.94697 240:-0.107527 241:0.521815 242:0.461095 243:-0.198917 244:-0.276702 245:0.304927 246:0.17341 247:-0.489914 248:-0.943925 249:0.261169 250:-0.255713 251:0.469144 252:0.330911 253:0.238329 254:0.37279 255:0.454991 256:0.54244 257:0.807692 258:0.520723 259:0.434667 260:0.427756 261:0.524372 262:-0.192341 263:0.166887 264:0.143849 265:-0.156485 266:0.489899 267:0.474462 268:0.319372 269:0.425459 270:0.653676 271:0.518698 272:0.590533 273:0.412056 274:0.256997 275:0.292722 276:0.481881 277:-0.286356 278:0.225394 279:-0.996388 280:-0.865546 281:-0.792771 282:-0.724349 283:-0.754967 284:-0.385787 285:-0.391892 286:-0.39604 287:-0.343439 288:-0.197584 289:0.840062 290:0.640333 291:0.232807 292:-0.278062 293:0.165426 294:-0.67464 295:-0.645064 296:-1 302:-1 303:-0.99278 304:-0.906396 305:-0.227807 306:0.113354 307:-1 308:-1 310:-1 311:-1 312:-0.990385 313:-0.9566 314:-0.734336 315:0.259669 316:0.127737 317:-1 318:-1 319:-0.2 320:-0.733333 321:0.407407 322:-0.787879 323:-0.64457 324:-0.215591 325:0.563422 326:-0.249573 327:-0.911765 328:-0.322917 329:0.373494 330:0.974843 331:0.107692 332:-0.444915 333:-0.270992 334:0.0307845 335:0.320872 336:-0.495187 337:-0.773982 338:-0.0386657 339:0.0292729 340:-0.280612 341:-0.534789 342:-0.551582 343:-0.356618 344:-0.161616 345:-0.471596 346:-0.830816 347:-0.289787 348:0.614439 349:-0.0707635 350:-0.476 351:-0.619645 352:-0.337621 353:-0.0697674 354:-0.193277 355:-0.825397 356:-1 357:-0.0837438 358:0.785627 359:-0.246377 360:-0.742402 361:-0.845411 362:0.1 363:-0.714286 364:-0.5 365:-1 366:-1 367:0.200324 368:0.250875 369:-0.747967 370:-0.947137 371:-1 372:-1 373:-1 374:-1 375:-1 376:-1 377:0.205882 378:-0.456389 379:-0.904236 380:-0.991453 381:-1 382:-1 386:-1 387:-0.54918 388:0.370892 389:0.458333 390:0.027907 391:-0.423369 392:-0.333333 393:-0.203285 394:0.354651 395:-0.0712831 396:-0.68254 397:-0.193796 398:-0.109198 399:0.689655 400:0.384465 401:0.038835 402:0.00117233 403:0.119075 404:0.534123 405:0.576271 406:0.517413 407:0.35865 408:0.286606 409:0.0348837 410:-0.565977 411:-0.223545 412:-0.066489 413:0.066726 414:0.817246 415:0.463668 416:-0.219731 417:0.106646 418:0.155844 419:0.345884 420:0.470085 421:0.241379 422:0.395522 423:-0.103694 424:0.09375 425:-0.605293 426:-0.0051161 427:-0.793584 428:-0.245951 429:0.281841 430:0.602504 431:0.290698 432:-0.147541 433:-0.00439883 434:0.251609 435:0.671062 436:0.445304 437:-0.0216963 438:0.13985 439:-0.18847 440:-0.596359 441:-0.131317 442:-0.0462837 443:0.107614 444:-0.850492 
2.4316966077876416 6:-0.993691 7:-0.693182 8:0.354839 9:-0.728155 10:-1 16:-0.975018 17:-0.114089 18:0.448671 19:-0.849187 20:-1 25:-0.333333 26:-0.912351 27:-0.426136 28:-0.218245 29:-0.689822 30:-0.983471 31:-1 32:-0.9 33:-0.375 34:-0.385928 35:-0.228571 36:-0.581686 37:0.976889 38:0.0540495 39:-0.911363 40:-0.999239 41:-0.991432 42:-0.397816 43:-0.171186 44:-0.0948359 45:-0.194554 46:-0.108123 47:0.554589 48:-0.331329 49:-0.950422 50:-1 51:-0.989033 52:-0.537601 53:-0.102349 54:0.477468 55:-0.137551 56:0.375513 57:-0.0615322 58:-0.964065 59:-1 60:-0.999359 61:-0.993513 62:-0.63878 63:0.223491 64:0.772073 65:-0.414267 66:0.435169 67:-0.935484 68:-1 69:-1 70:-1 71:-0.995058 72:-0.860725 73:-0.41662 74:0.523584 75:-0.185369 76:-0.115864 77:-0.990656 78:-1 79:-1 80:-1 81:-0.996976 82:-0.884171 83:-0.474478 84:0.543848 85:-0.445893 86:-0.705522 91:-1 92:-1 93:-0.774648 94:-0.367003 95:-0.34235 96:-0.2976 97:0.402695 98:-0.534736 99:-0.988557 100:-1 101:-0.222185 102:0.445001 103:0.199018 104:0.599458 105:0.0147059 106:-0.16299 107:0.337521 108:0.51984 109:0.377606 110:0.390494 111:0.300613 112:0.394033 113:0.201125 114:-0.0979936 115:0.106138 116:-0.102294 117:0.409786 118:0.00491083 119:0.312778 120:-0.147059 121:-0.10299 122:0.0633134 123:0.590689 124:0.516844 125:0.232759 126:0.353191 127:0.545256 128:0.138374 129:-0.133598 130:-0.0665571 131:-0.724819 132:-0.34033 133:-0.0649768 134:0.150245 135:0.189374 136:-0.234146 137:-0.0683315 138:0.0639783 139:0.583878 140:0.30211 141:0.0448043 142:0.605189 143:0.208801 144:-0.143761 145:0.0199647 146:-0.279279 147:-0.225915 148:-0.763552 154:-0.948339 155:-0.767008 156:-0.275362 157:0.630545 158:-0.680836 159:-1 160:-1 161:-1 162:-1 163:-1 164:-0.925781 165:-0.611738 166:0.203283 167:0.265385 168:-0.72973 169:-1 170:-1 171:-1 172:-0.4 173:0.52 174:-0.736041 175:-0.178715 176:0.65189 177:0.155527 178:-0.815764 179:-0.986079 180:-0.517045 181:-0.174954 182:0.391557 183:0.486842 184:-0.332382 185:0.312186 186:0.696912 187:-0.0299129 188:-0.83415 189:-0.656187 190:-0.252191 191:0.190457 192:0.171316 193:-0.365046 194:-0.335544 195:0.300831 196:0.121045 197:-0.29375 198:-0.947137 199:-0.477766 200:0.170935 201:0.579487 202:0.202715 203:-0.431262 204:0.324538 205:0.368984 206:-0.233244 207:-0.906475 208:-0.98995 209:-0.595752 210:0.440665 211:0.509524 212:-0.272727 213:-0.691787 214:0.230769 215:-1 216:-0.6 217:-1 218:-1 219:-0.589286 220:0.644792 221:0.0718789 222:-0.668704 223:-0.926024 224:-1 225:-1 226:-1 228:-1 229:-0.42616 230:0.597672 231:-0.228164 232:-0.798226 233:-0.924731 234:-1 239:-0.912879 240:-0.204301 241:0.399651 242:0.403458 243:-0.128552 244:-0.19925 245:0.233023 246:0.202312 247:-0.472622 248:-0.939252 249:0.0734107 250:-0.0202285 251:0.706702 252:0.614151 253:0.130221 254:0.697156 255:0.432574 256:0.249315 257:0.337152 258:0.562924 259:0.296 260:0.337914 261:0.400295 262:-0.0403629 263:0.18207 264:0.207458 265:0.0013947 266:0.455808 267:0.341705 268:0.141361 269:0.410483 270:0.235294 271:0.236942 272:0.576331 273:0.668043 274:0.24173 275:0.597412 276:0.676176 277:-0.0625138 278:-0.019379 279:-0.991874 280:-0.806723 281:-0.681928 282:-0.684533 283:-0.695364 284:-0.219966 285:-0.265766 286:-0.317822 287:-0.314855 288:-0.111303 289:0.532872 290:0.746231 291:0.312113 292:-0.0853034 293:0.0497823 294:-0.650208 295:-0.623684 296:-0.998435 302:-1 303:-0.98556 304:-0.847114 305:0.0203209 306:-0.0419255 307:-1 308:-1 310:-1 311:-1 312:-1 313:-0.938517 314:-0.561404 315:0.390055 316:-0.124088 317:-1 318:-1 319:-1 320:-0.733333 321:-0.407407 322:-0.79798 323:-0.540197 324:-0.0767357 325:0.362832 326:-0.287179 327:-0.921569 328:-0.104167 329:0.13253 330:0.710692 331:0.0153846 332:-0.529661 333:-0.311069 334:0.0566038 335:0.305296 336:-0.281283 337:-0.617608 338:-0.166035 339:-0.267233 340:-0.345238 341:-0.473397 342:-0.480055 343:-0.327206 344:-0.212121 345:-0.424707 346:-0.667674 347:-0.240021 348:0.222734 349:-0.00372439 350:-0.326 351:-0.510972 352:-0.254019 353:0.333333 354:0.0420168 355:-0.825397 356:-0.8 357:-0.120338 358:0.576127 359:-0.156785 360:-0.643994 361:-0.835749 362:-0.5 363:-0.428571 364:-1 365:-1 366:-1 367:-0.00243309 368:0.453909 369:-0.617886 370:-0.898678 371:-0.976744 372:-1 373:-1 374:-1 375:-1 376:-1 377:0.0941176 378:-0.286004 379:-0.904236 380:-0.974359 381:-1 382:-1 386:-1 387:-0.610656 388:0.14554 389:0.684524 390:-0.0511628 391:-0.332322 392:-0.364341 393:-0.13347 394:0.313953 395:0.0916497 396:-0.687831 397:-0.18958 398:0.285908 399:0.719212 400:0.52809 401:-0.15534 402:0.010551 403:-0.0150289 404:0.0835655 405:0.381356 406:0.467662 407:0.172996 408:0.205953 409:0.0523256 410:-0.464507 411:-0.196526 412:0.0154299 413:0.213523 414:0.302445 415:0.170415 416:-0.273543 417:-0.0386399 418:-0.318182 419:0.149968 420:0.709402 421:0.433498 422:0.0522388 423:0.320872 424:0.3 425:-0.542779 426:-0.284534 427:-0.719249 428:-0.112348 429:0.270337 430:0.651017 431:0.251938 432:-0.163279 433:-0.326979 434:0.151866 435:0.329632 436:0.438674 437:-0.2 438:0.32761 439:-0.0643016 440:-0.512655 441:-0.242705 442:0.140243 443:0.210989 444:-0.749594 
7.4008546162618494 6:-0.987382 7:-0.914773 8:0.148387 9:0.0679612 10:-1 16:-0.993576 17:-0.644674 18:0.543558 19:-0.429276 20:-0.995992 25:-1 26:-0.952191 27:-0.593344 28:0.0854503 29:0.0306947 30:-1 31:-1 32:-1 33:-0.125 34:-0.117271 35:-0.166667 36:-0.740837 37:0.416039 38:0.851378 39:-0.654521 40:-0.995688 41:-0.919217 42:-0.103276 43:0.0994316 44:0.0614058 45:-0.284656 46:-0.293555 47:0.715026 48:0.306178 49:-0.790372 50:-0.998383 51:-0.906946 52:-0.0151283 53:0.39192 54:0.619346 55:-0.376925 56:0.0606905 57:0.341787 58:-0.808426 59:-0.984878 60:-1 61:-0.913346 62:-0.078046 63:0.737401 64:0.555208 65:-0.67939 66:0.164298 67:-0.815668 68:-1 69:-1 70:-1 71:-0.92916 72:-0.577846 73:0.0950528 74:0.414561 75:-0.520805 76:-0.196654 77:-0.946451 78:-0.997091 79:-0.998324 80:-1 81:-0.96741 82:-0.634884 83:-0.198689 84:0.0956235 85:-0.666642 86:-0.686821 91:-1 92:-0.914894 93:-0.0704225 94:-0.0707071 95:-0.384615 96:-0.543404 97:0.367515 98:-0.0337795 99:-0.944056 100:-1 101:-0.263262 102:0.413641 103:-0.00413544 104:0.597331 105:0.0294118 106:-0.280637 107:0.162126 108:0.691271 109:0.450499 110:0.507922 111:0.169734 112:0.627317 113:0.209564 114:-0.138769 115:0.0677369 116:-0.207172 117:0.47358 118:-0.0356681 119:0.562101 120:0.264706 121:-0.178295 122:0.134212 123:0.554364 124:0.672543 125:0.377586 126:0.182979 127:0.560677 128:0.241084 129:-0.147314 130:0.110107 131:-0.750911 132:-0.397515 133:-0.240896 134:0.0489034 135:0.292202 136:-0.34228 137:-0.206154 138:-0.016075 139:0.583781 140:0.364557 141:0.192531 142:0.664488 143:0.474531 144:-0.172868 145:0.0888791 146:-0.364197 147:-0.257352 148:-0.766798 154:-0.97048 155:-0.901212 156:-0.632342 157:0.393455 158:-0.127526 159:-1 160:-1 161:-1 162:-1 163:-1 164:-0.96875 165:-0.843115 166:-0.359848 167:0.446154 168:-0.375921 169:-1 170:-1 171:-1 173:-0.04 174:-0.865677 175:-0.619143 176:0.227252 177:0.561787 178:-0.46798 179:-0.967517 180:-0.136364 181:0.325967 182:0.845706 183:0.142105 184:-0.552239 185:-0.0750484 186:0.77831 187:0.475956 188:-0.624576 189:-0.409736 190:0.209737 191:0.629371 192:0.116595 193:-0.500828 194:-0.526336 195:0.13188 196:0.367654 197:0.126786 198:-0.9163 199:-0.0493492 200:0.610435 201:0.586325 202:-0.139355 203:-0.64622 204:-0.0963061 205:0.486631 206:-0.0402145 207:-0.741007 208:-0.98995 209:-0.23691 210:0.820106 211:0.185714 212:-0.676844 213:-0.859441 214:-0.153846 215:-0.636364 216:-1 217:-1 218:-1 219:-0.204365 220:0.574955 221:-0.388398 222:-0.843521 223:-0.957728 224:-1 225:-1 226:-1 228:-1 229:-0.06088 230:0.398171 231:-0.602496 232:-0.909091 233:-0.983871 234:-1 239:-0.734848 240:0.193548 241:0.696335 242:0.299712 243:-0.419486 244:-0.461587 245:0.0972037 246:0.343931 247:-0.0662824 248:-0.911215 249:0.0667191 250:-0.0353613 251:0.5501 252:0.566268 253:0.046683 254:0.524981 255:0.214011 256:0.275479 257:0.445172 258:0.627732 259:0.376 260:0.619913 261:0.4387 262:-0.0497031 263:0.0870082 264:0.048547 265:-0.00055788 266:0.385101 267:0.622203 268:0.240838 269:0.478557 270:0.319118 271:0.256927 272:0.329389 273:0.635012 274:0.0737913 275:0.563342 276:0.643793 277:-0.0865179 278:0.0574425 279:-0.991874 280:-0.882353 281:-0.73494 282:-0.831547 283:-0.81457 284:-0.48731 285:-0.531532 286:-0.548515 287:-0.514942 288:-0.35289 289:0.588235 290:0.698951 291:0.526487 292:-0.0996114 293:0.0380565 294:-0.705497 295:-0.671294 296:-1 302:-1 303:-1 304:-0.984399 305:-0.638503 306:0.245342 307:-1 308:-1 310:-1 311:-1 312:-0.990385 313:-0.98915 314:-0.887218 315:-0.144751 316:0.428832 317:-1 318:-1 319:0.2 320:-0.466667 321:-0.111111 322:-0.883838 323:-0.847673 324:-0.449452 325:0.431662 326:0.218803 327:-0.735294 329:0.554217 330:0.421384 331:-0.193846 332:-0.618644 333:-0.5 334:-0.10427 335:0.442368 336:0.0930481 337:-0.396846 338:0.197877 339:-0.0840415 340:-0.47449 341:-0.590723 342:-0.62586 343:-0.492647 344:-0.106061 345:-0.255185 346:-0.570997 347:0.269051 348:0.477727 349:-0.329609 350:-0.55 351:-0.709509 352:-0.401929 353:-0.100775 354:-0.0756303 355:-0.571429 356:-0.8 357:0.37931 358:0.354446 359:-0.554677 360:-0.782923 361:-0.932367 362:-0.5 363:-1 364:-0.5 365:-1 366:-1 367:0.424169 368:-0.199533 369:-0.872629 370:-0.986784 371:-1 372:-1 373:-1 374:-1 375:-1 376:-1 377:0.311765 378:-0.74645 379:-0.974217 380:-1 381:-1 382:-1 386:-1 387:-0.32377 388:0.394366 389:0.22619 390:-0.288372 391:-0.587253 392:-0.603101 393:-0.408624 394:0.255814 395:0.0835031 396:-0.449735 397:-0.418009 398:0.323969 399:0.3867 400:0.671715 402:-0.0269637 403:-0.0450867 404:0.388579 405:0.661017 406:0.497512 407:0.156118 408:0.683149 409:0.494186 410:-0.426988 411:-0.0202638 412:-0.255576 413:0.379004 414:0.56242 415:0.66263 416:-0.139013 417:0.0788253 418:-0.0692641 419:0.0918953 420:0.763533 421:0.551724 422:0.164179 423:0.472185 424:0.6625 425:-0.44011 426:0.0995671 427:-0.90626 428:-0.512146 429:-0.229252 430:0.220657 431:0.29845 432:-0.220984 433:-0.319648 434:-0.130631 435:0.5517 436:0.496133 437:0.122682 438:0.574633 439:0.45898 440:-0.442052 441:0.0284698 442:-0.367317 443:-0.223186 444:-0.944024 
-3.4695907626648737 6:-1 7:-0.963068 8:-0.290323 9:-0.352751 10:-0.942308 16:-0.999286 17:-0.659107 18:0.649898 19:-0.301134 20:-0.98998 25:-1 26:-0.994688 27:-0.851461 28:-0.583141 29:-0.705977 30:-0.991736 31:-1 32:-1 33:-0.8 34:-0.833689 35:-0.827381 36:-0.854897 37:0.341253 38:1 39:-0.680648 40:-0.991122 41:-0.970624 42:-0.702964 43:-0.616252 44:-0.528284 45:-0.636877 46:-0.446836 47:0.616153 48:0.202135 49:-0.811561 50:-0.995148 51:-0.934197 52:-0.417452 53:0.0403994 54:0.495461 55:-0.350059 56:0.463918 57:0.897271 58:-0.640032 59:-0.950732 60:-0.999039 61:-0.89342 62:-0.0555867 63:1 64:0.887915 65:-0.609113 66:0.559503 67:-0.741935 68:-0.964286 69:-1 70:-1 71:-0.886326 72:-0.461303 73:0.401334 74:1 75:-0.376107 76:0.170421 77:-0.890027 78:-0.981091 79:-0.998324 80:-1 81:-0.948482 82:-0.452792 83:0.0744937 84:0.406881 85:-0.583079 86:-0.549532 91:-1 92:-0.957447 93:-0.690141 94:-0.447811 95:-0.56213 96:-0.555315 97:0.517964 98:0.119184 99:-0.902098 100:-1 101:-0.01831 102:0.237302 103:0.275782 104:0.331579 105:0.102941 106:-0.0059232 107:0.426867 108:0.57859 109:0.148414 110:0.205965 111:-0.0306748 112:0.113453 113:-0.122363 114:-0.207867 115:0.0149197 116:0.0691187 117:0.233364 118:0.235461 119:0.0864652 120:-0.132353 121:0.115049 122:0.281277 123:0.595291 124:0.345785 125:0.212069 126:-0.0425532 127:0.175662 128:-0.00142653 129:-0.23099 130:-0.00499336 131:-0.640808 132:-0.130873 133:0.202028 134:0.374534 135:0.107112 136:-0.0234861 137:0.23671 138:0.331466 139:0.635875 140:0.240506 141:-0.148718 142:0.402354 143:-0.368205 144:-0.250675 145:0.00498328 146:-0.110952 147:-0.0363012 148:-0.689403 154:-0.9631 155:-0.845294 156:-0.493516 157:0.617455 158:-0.38676 159:-1 160:-1 161:-1 162:-1 163:-1 164:-0.957031 165:-0.781038 166:-0.0441919 167:0.555769 168:-0.653563 169:-1 170:-1 171:0.333333 172:-0.4 173:-0.04 174:-0.821164 175:-0.467871 176:0.586561 177:0.458102 178:-0.740887 179:-0.986079 180:-0.517045 181:-0.160221 182:0.54294 183:0.297368 184:-0.540558 185:0.0711799 186:0.857314 187:0.186293 188:-0.858274 189:-0.713996 190:-0.180915 191:0.45907 192:0.147353 193:-0.445582 194:-0.430709 195:0.423051 196:0.409342 197:-0.11875 198:-0.929515 199:-0.444685 200:0.432778 201:0.801221 202:0.027343 203:-0.539683 204:0.251979 205:0.572193 206:-0.0348525 207:-0.81295 208:-1 209:-0.434639 210:0.761905 211:0.299048 212:-0.5753 213:-0.837426 214:0.192308 215:-0.454545 216:-1 217:-1 218:-1 219:-0.366071 220:0.700181 221:-0.324086 222:-0.820293 223:-0.96037 224:-1 225:-1 226:-1 228:-1 229:-0.169379 230:0.501247 231:-0.527629 232:-0.847007 233:-0.956989 234:-1 239:-0.848485 240:0.00358423 241:0.486911 242:0.236311 243:-0.313938 244:-0.320425 245:0.312916 246:0.491329 247:-0.319885 248:-0.943925 249:0.221019 250:-0.0982088 251:0.548772 252:0.38136 253:0.154791 254:0.555726 255:0.496322 256:0.356708 257:0.677578 258:0.449887 259:0.269333 260:0.174294 261:0.298375 262:-0.116152 263:0.307895 264:0.281259 265:-0.0941423 266:0.277778 267:0.193964 268:0.109948 269:0.334241 270:0.639706 271:0.361847 272:0.59211 273:0.595376 274:0.251908 275:0.350081 276:0.492675 277:-0.13703 278:0.167882 279:-0.988713 280:-0.823529 281:-0.725301 282:-0.724349 283:-0.635762 284:-0.370558 285:-0.282282 286:-0.451485 287:-0.392811 288:-0.15962 289:0.701781 290:0.557351 291:0.109201 292:-0.16338 293:0.211347 294:-0.661641 295:-0.652922 296:-0.997054 302:-1 303:-1 304:-0.975039 305:-0.465241 306:0.231366 307:-1 308:-1 310:-1 311:-1 312:-0.990385 313:-0.974684 314:-0.819549 315:0.438674 316:0.308394 317:-1 318:-1 319:0.6 320:-0.866667 321:-0.185185 322:-0.89899 323:-0.777151 324:-0.400731 325:0.610619 326:-0.222222 327:-0.813725 328:-0.447917 329:0.0722892 330:0.220126 331:-0.107692 332:-0.665254 333:-0.553435 334:-0.0705065 335:0.540498 336:-0.381818 337:-0.653088 338:-0.0614102 339:-0.210576 340:-0.416667 341:-0.579809 342:-0.563961 343:-0.352941 344:0.207071 345:-0.0712353 346:-0.655589 347:-0.11042 348:0.600614 349:-0.117318 350:-0.42 351:-0.644723 352:-0.189711 353:0.503876 354:0.495798 355:-0.31746 356:-0.7 357:0.154117 358:0.673569 359:-0.509881 360:-0.794501 361:-0.922705 362:-0.1 363:-0.428571 364:-0.5 365:-1 366:-1 367:0.430657 368:-0.131855 369:-0.853659 370:-0.977974 371:-1 372:-1 373:-1 374:-1 375:-1 376:-1 377:0.333824 378:-0.724138 379:-0.970534 380:-0.991453 381:-1 382:-1 386:-1 387:-0.454918 388:0.305164 389:0.154762 390:-0.362791 391:-0.550835 392:-0.47907 393:-0.318275 394:0.331395 395:0.372709 396:-0.560847 397:-0.26743 398:0.0856366 399:0.423645 400:0.484123 401:-0.0291262 402:0.031653 403:0.269364 404:0.216574 405:0.641243 406:0.527363 407:0.417722 408:0.137782 409:0.180233 410:-0.452995 411:0.0968157 412:-0.119512 413:0.129004 414:0.655084 415:0.128028 416:-0.121076 417:0.137558 418:0.305195 419:0.229738 420:0.68661 421:0.44335 422:0.574627 423:0.201602 424:0.20625 425:-0.468401 426:0.0334514 427:-0.88216 428:-0.431174 429:0.140509 430:0.245696 431:0.472868 432:-0.064918 433:0.13783 434:0.0045045 435:0.496877 436:0.60884 437:0.0406312 438:0.238992 439:-0.123429 440:-0.470249 441:0.0633452 442:-0.135803 443:-0.165621 444:-0.934956 
2.4555061044272106 6:-1 7:-0.758523 8:0.883871 9:-0.275081 10:-1 16:-0.99429 17:-0.0907216 18:0.434765 19:-0.746673 20:-1 25:-1 26:-0.93714 27:-0.211039 28:0.43649 29:-0.0726979 30:-1 31:-1 32:-0.9 33:-0.45 34:0.00639659 35:0.0535714 36:-0.524569 37:0.743101 38:0.365099 39:-0.837517 40:-0.998985 41:-0.971848 42:-0.380967 43:-0.0217128 44:0.201988 45:-0.0401121 46:-0.0505464 47:0.757072 48:0.00104288 49:-0.906398 50:-0.999461 51:-0.929877 52:-0.153914 53:0.402415 54:0.913668 55:-0.145552 56:0.0511566 57:-0.314322 58:-0.951677 59:-0.99878 60:-0.99968 61:-0.95088 62:-0.244619 63:0.590378 64:0.582968 65:-0.53856 66:0.133215 67:-0.981567 68:-1 69:-1 70:-1 71:-0.958814 72:-0.770161 73:-0.418844 74:-0.0270068 75:-0.481342 76:-0.657827 77:-1 78:-1 79:-1 80:-0.99686 81:-0.989584 82:-0.844351 83:-0.637835 84:-0.248004 85:-0.691741 86:-0.929239 91:-1 92:-0.829787 93:-0.43662 94:0.016835 95:-0.144548 96:-0.203754 97:0.607036 98:-0.431485 99:-0.9822 100:-1 101:-0.393838 102:0.251251 103:-0.0201602 104:0.678205 105:1 106:-0.29759 107:0.470519 108:0.850499 109:0.995094 110:0.629077 111:0.546012 112:0.571861 113:0.659634 114:-0.124196 115:0.421215 116:-0.377735 117:0.347633 118:-0.0248126 119:0.626783 120:0.573529 121:-0.116525 122:0.523194 123:0.790352 124:0.982894 125:0.613793 126:0.72766 127:0.527824 128:0.589158 129:-0.0963206 130:0.397636 131:-0.900193 132:-0.685963 133:-0.413435 134:-0.292308 135:0.64353 136:-0.382652 137:-0.0889837 138:-0.306297 139:0.601356 140:0.597468 141:0.712809 142:0.55578 143:0.600805 144:-0.140678 145:0.409449 146:-0.675803 147:-0.627577 148:-0.933803 154:-0.99262 155:-0.916123 156:-0.517925 157:0.620364 158:-0.202787 159:-1 160:-1 161:-1 162:-1 163:-1 164:-0.966797 165:-0.794582 166:-0.181818 167:0.658654 168:-0.460688 169:-1 170:-1 171:-0.333333 172:0.2 174:-0.832878 175:-0.493976 176:0.490434 177:0.653081 178:-0.589163 179:-0.986079 180:-0.448864 181:0.141805 182:0.647744 183:0.239474 184:-0.515639 185:0.0270793 186:0.809433 187:0.321469 188:-0.754994 189:-0.724138 190:-0.0835443 191:0.412587 192:0.0146638 193:-0.514527 194:-0.515077 195:0.193889 196:0.372677 197:-0.01875 198:-0.9163 199:-0.275488 200:0.573624 201:0.655189 202:-0.108052 203:-0.557977 204:0.105541 205:0.682709 206:0.126005 207:-0.741007 208:-1 209:-0.278653 210:0.891156 211:0.277143 212:-0.5753 213:-0.856901 214:0.153846 215:-0.818182 216:-1 217:-1 218:-1 219:-0.231151 220:0.795304 221:-0.350567 222:-0.853301 223:-0.96037 224:-1 226:-1 228:-1 229:0.0174804 230:0.469659 231:-0.597148 232:-0.922395 233:-0.973118 234:-1 239:-0.814394 240:0.18638 241:0.699825 242:0.377522 243:-0.373478 244:-0.355403 245:0.382157 246:0.5 247:-0.161383 248:-0.88785 249:0.179951 250:-0.152718 251:0.515594 252:0.45746 253:0.375921 254:0.6495 255:0.429072 256:0.371615 257:0.792962 258:0.671439 259:0.349333 260:0.391819 261:0.590842 262:-0.188605 263:0.207552 264:0.124811 265:-0.146304 266:0.494949 267:0.413466 268:0.387435 269:0.542546 270:0.678676 271:0.366995 272:0.591321 273:0.781998 274:0.455471 275:0.431159 276:0.51118 277:-0.185038 278:0.175106 279:-0.999097 280:-0.94958 281:-0.879518 282:-0.865237 283:-0.741722 284:-0.434856 285:-0.478979 286:-0.568317 287:-0.526202 288:-0.339085 289:0.78316 290:0.719937 291:0.276952 292:-0.225333 293:0.161635 294:-0.674138 295:-0.652158 296:-1 302:-1 303:-1 304:-0.950078 305:-0.433155 306:0.431677 307:-1 308:-1 310:-1 311:-1 312:-0.980769 313:-0.98915 314:-0.807018 315:0.248619 316:0.532847 317:-1 318:-1 319:-1 320:-0.2 321:-0.333333 322:-0.853535 323:-0.794076 324:-0.403167 325:0.583088 326:0.128205 327:-0.882353 328:-0.291667 329:0.216867 330:0.320755 331:-0.433846 332:-0.641949 333:-0.528626 334:-0.106256 335:0.375389 336:-0.249198 337:-0.704336 338:-0.149356 339:-0.29745 340:-0.535714 341:-0.633015 342:-0.708391 343:-0.577206 344:-0.244949 345:-0.22633 346:-0.716012 347:-0.0492483 348:0.434716 349:-0.251397 350:-0.506 351:-0.69279 352:-0.266881 353:0.44186 354:0.0588235 355:-0.380952 356:-0.6 357:0.337087 358:0.534714 359:-0.457181 360:-0.803184 361:-0.898551 362:-0.5 363:0.142857 364:-1 365:-1 366:-1 367:0.570154 368:-0.0245041 369:-0.834688 370:-0.951542 371:-1 372:-1 373:-1 374:-1 375:-1 376:-1 377:0.514706 378:-0.636917 379:-0.977901 380:-0.991453 381:-1 382:-1 386:-1 387:-0.418033 388:0.553991 389:0.303571 390:-0.227907 391:-0.484067 392:-0.423256 393:-0.264887 394:0.511628 395:0.458248 396:-0.328042 397:-0.284144 398:0.0104214 399:0.62069 400:0.517342 401:0.126214 402:0.134818 403:0.0751445 404:0.220056 405:0.723164 406:0.631841 407:0.78903 408:0.364378 409:0.5 410:-0.548071 411:0.0562882 412:-0.172815 413:0.175267 414:0.69112 415:0.350346 416:-0.0672646 417:0.279753 418:0.320346 419:0.0727505 420:0.945869 421:0.866995 422:0.850746 423:0.254117 424:0.4375 425:-0.51175 426:0.0562771 427:-0.881534 428:-0.419028 429:0.0665571 430:0.312989 431:0.581395 432:-0.137049 433:-0.0293255 434:-0.113256 435:0.459403 436:0.847514 437:0.205523 438:0.377458 439:0.0953437 440:-0.540631 441:0.0512456 442:-0.0932084 443:-0.0689615 444:-0.904285 
-8 6:-1 7:-0.764205 8:0.707527 9:-0.411003 10:-0.980769 16:-0.9793 17:-0.238488 18:0.477301 19:-0.612617 20:-0.993988 25:-0.333333 26:-0.898185 27:-0.303571 28:0.0842956 29:-0.347334 30:-0.983471 31:-1 32:-0.7 33:-0.425 34:-0.0490405 35:-0.00119048 36:-0.555267 37:0.712041 38:0.467186 39:-0.780297 40:-0.999239 41:-0.99388 42:-0.493292 43:-0.186283 44:0.030439 45:-0.130481 46:-0.125643 47:0.615001 48:-0.0864364 49:-0.890146 50:-0.999461 51:-0.964108 52:-0.379084 53:0.14392 54:0.677534 55:-0.184143 56:0.148146 57:-0.0203939 58:-0.891948 59:-0.995366 60:-0.99968 61:-0.959222 62:-0.334456 63:0.613762 64:0.714465 65:-0.499518 66:0.238899 67:-0.907834 68:-1 69:-1 70:-1 71:-0.971993 72:-0.713873 73:-0.182046 74:0.336403 75:-0.418792 76:-0.358046 77:-0.990656 78:-1 79:-1 80:-0.99686 81:-0.983649 82:-0.748846 83:-0.424658 84:0.0361685 85:-0.643405 86:-0.814001 91:-1 92:-0.914894 93:-0.521127 94:0.010101 95:-0.183432 96:-0.330085 97:0.357036 98:-0.361377 99:-0.952956 100:-0.996491 101:-0.248766 102:0.378501 103:0.111915 104:0.674164 105:0.0735294 106:-0.223448 107:0.327785 108:0.726214 109:0.676888 110:0.664492 111:0.464213 112:0.475001 113:0.403657 114:-0.210693 115:0.0534466 116:-0.263444 117:0.297158 118:0.106487 119:0.514292 120:0.176471 121:-0.000123047 122:0.313693 123:0.734673 124:0.721417 125:0.331034 126:0.46383 127:0.546206 128:0.329529 129:-0.106236 130:0.188736 131:-0.802287 132:-0.46998 133:-0.172455 134:0.0161702 135:0.557841 136:-0.257027 137:-0.0673832 138:-0.0508887 139:0.749165 140:0.52827 141:0.297909 142:0.629584 143:0.296978 144:-0.193327 145:0.120955 146:-0.447831 147:-0.369496 148:-0.834968 154:-0.97786 155:-0.890028 156:-0.548436 157:0.645091 158:-0.27108 159:-1 160:-1 161:-1 162:-1 163:-0.666667 164:-0.953125 165:-0.783296 166:-0.188131 167:0.542308 168:-0.511057 169:-1 170:-1 171:-1 172:-0.6 173:0.32 174:-0.78524 175:-0.460509 176:0.469902 177:0.579394 178:-0.611823 179:-0.986079 180:-0.267045 181:0.134438 182:0.828239 183:0.340789 184:-0.451525 185:0.142747 186:0.87886 187:0.243468 188:-0.75801 189:-0.733266 190:-0.178578 191:0.399424 192:0.0940629 193:-0.468614 194:-0.468651 195:0.183554 196:0.236565 197:-0.222321 198:-0.933921 199:-0.461497 200:0.409411 201:0.650305 202:-0.0213087 203:-0.534033 204:0.102902 205:0.490196 206:-0.174263 207:-0.791367 208:-1 209:-0.398023 210:0.864701 211:0.474286 212:-0.528645 213:-0.828112 215:0.0909091 216:-1 217:-1 218:-1 219:-0.298611 220:0.837447 221:-0.248424 222:-0.790954 223:-0.952444 224:-1 225:-1 226:-1 228:-1 229:-0.0789632 230:0.591022 231:-0.543672 232:-0.884701 233:-0.983871 234:-1 239:-0.875 240:0.326165 241:0.664921 242:0.43804 243:-0.309878 244:-0.356652 245:0.419441 246:0.346821 247:-0.331412 248:-0.901869 249:0.198977 250:-0.0517295 251:0.591241 252:0.575246 253:0.164619 254:0.663336 255:0.359019 256:0.32659 257:0.629296 258:0.740769 259:0.322667 260:0.427967 261:0.651403 262:-0.217426 263:0.100079 264:0.0589619 265:-0.171688 266:0.544192 267:0.441537 268:0.162304 269:0.632403 270:0.5 271:0.331718 272:0.484813 273:0.694467 274:0.221374 275:0.563342 276:0.676176 277:-0.10581 278:0.178857 279:-0.995034 280:-0.89916 281:-0.836145 282:-0.819296 283:-0.768212 284:-0.350254 285:-0.457958 286:-0.527723 287:-0.456908 288:-0.363244 289:0.69909 290:0.75588 291:0.380886 292:-0.200857 293:0.106376 294:-0.661139 295:-0.628694 296:-0.998435 302:-1 303:-0.98556 304:-0.962559 305:-0.465241 306:0.378882 307:-1 308:-1 310:-1 311:-1 312:-0.990385 313:-0.96745 314:-0.802005 315:0.297238 316:0.279197 317:-1 318:-1 319:0.2 320:-0.866667 321:-0.185185 322:-0.772727 323:-0.771509 324:-0.356882 325:0.644051 326:-0.135043 327:-0.911765 328:-0.166667 329:0.325301 330:0.685535 331:-0.0830769 332:-0.565678 333:-0.383588 334:0.0129096 335:0.428349 336:-0.347594 337:-0.712221 338:-0.0689917 339:-0.186025 340:-0.404762 341:-0.58663 342:-0.643741 343:-0.441176 344:-0.159091 345:-0.320108 346:-0.818731 347:-0.232763 348:0.450077 349:-0.167598 350:-0.51 351:-0.628004 352:-0.344051 353:0.0697674 354:0.142857 355:-0.619048 356:-1 357:0.131597 358:0.639464 359:-0.40975 360:-0.716353 361:-0.884058 362:0.1 363:-0.714286 364:-1 365:-1 366:-1 367:0.544201 368:-0.0151692 369:-0.813008 370:-0.964758 371:-0.988372 372:-1 373:-1 374:-1 375:-1 376:-1 377:0.402941 378:-0.59432 379:-0.948435 380:-1 381:-1 382:-1 386:-1 387:-0.45082 388:0.591549 389:0.380952 390:-0.00465116 391:-0.474962 392:-0.454264 393:-0.305955 394:0.261628 395:0.323829 396:-0.582011 397:-0.243939 398:0.208881 399:0.485222 400:0.606253 401:0.165049 402:-0.00586166 403:-0.0520231 404:0.213092 405:0.638418 406:0.706468 407:0.594937 408:0.394143 409:0.44186 410:-0.588148 411:-0.130267 412:-0.168607 413:0.115658 414:0.65251 415:0.440311 416:-0.0313901 417:0.236476 418:-0.0757576 419:0.155073 420:0.911681 421:0.596059 422:0.320896 423:0.346684 424:0.4375 425:-0.500799 426:0.0735931 427:-0.858529 428:-0.34413 429:0.0468365 430:0.521127 431:0.620155 432:-0.0845902 433:-0.215543 434:-0.0135135 435:0.538515 436:0.743646 437:-0.00749507 438:0.447245 439:0.0938655 440:-0.55706 441:-0.0441281 442:-0.115696 443:-0.0157449 444:-0.90842 
8 6:-1 7:-0.514205 8:0.63871 9:-0.63754 10:-1 16:-0.953605 17:0.0604811 18:0.0404908 19:-0.835387 20:-0.991984 25:-1 26:-0.892873 27:-0.122565 28:0.034642 29:-0.644588 30:-1 31:-1 32:-1 33:-0.875 34:-0.547974 35:-0.164286 36:-0.442999 37:0.648995 38:0.0366824 39:-0.877355 40:-0.993659 41:-0.977968 42:-0.704836 43:-0.349734 44:0.0224334 45:0.0862533 46:0.161363 47:0.715218 48:-0.219925 49:-0.895289 50:-0.992992 51:-0.947159 52:-0.423811 53:0.200163 54:0.971938 55:0.0635422 56:0.0743515 57:-0.444983 58:-0.933035 59:-0.985854 60:-1 61:-0.926784 62:-0.416058 63:0.457331 64:0.737216 65:-0.442837 66:0.0994671 67:-0.907834 68:-0.964286 69:-1 70:-1 71:-0.961285 72:-0.77449 73:-0.484158 74:-0.151711 75:-0.559732 76:-0.753445 77:-0.975562 78:-1 79:-0.998324 80:-1 81:-0.975585 82:-0.854306 83:-0.695946 84:-0.41657 85:-0.776048 86:-0.948699 91:-1 92:-0.914894 93:-0.549296 94:-0.319865 95:-0.208791 96:-0.13734 97:0.302395 98:-0.57935 99:-0.986014 100:-0.992982 101:-0.339801 102:0.147748 103:0.0248126 104:0.509332 105:0.367647 106:-0.264297 107:0.567716 108:0.960449 109:0.691957 110:0.27493 111:0.300613 112:0.525431 113:0.139241 114:-0.107032 115:0.335348 116:-0.280732 117:0.407325 118:0.077281 119:0.579895 120:0.338235 121:-0.127845 122:0.709062 123:0.826101 124:0.635888 125:0.272414 126:0.485106 127:0.309197 128:0.0527817 129:-0.192296 130:0.243284 131:-0.833988 132:-0.609716 133:-0.29041 134:-0.25329 135:0.388175 136:-0.32479 137:0.141141 138:-0.174804 139:0.692229 140:0.356118 141:0.610358 142:0.518819 143:0.241931 144:-0.176539 145:0.289409 146:-0.580117 147:-0.57874 148:-0.831461 154:-0.98893 155:-0.914259 156:-0.531655 157:0.684364 158:-0.487108 159:-1 160:-1 161:-1 162:-1 163:-0.666667 164:-0.982422 165:-0.77088 166:-0.0909091 167:0.501923 168:-0.628993 169:-1 170:-1 171:-1 172:-1 173:0.04 174:-0.831316 175:-0.457162 176:0.668689 177:0.452886 178:-0.79803 179:-0.99536 180:-0.659091 181:-0.186004 182:0.400291 183:0.226316 184:-0.499286 185:0.123404 186:0.853483 187:0.170011 188:-0.860535 189:-0.793103 190:-0.236611 191:0.399424 192:0.187768 193:-0.405841 194:-0.390761 195:0.410919 196:0.37117 197:-0.226786 198:-0.964758 199:-0.490239 200:0.476953 201:0.896947 202:0.105412 203:-0.492602 204:0.319261 205:0.700535 206:-0.120643 207:-0.76259 208:-1 209:-0.480776 210:0.802721 211:0.349524 212:-0.527273 213:-0.835732 214:-0.230769 215:-0.636364 216:-1 217:-1 218:-1 219:-0.423611 220:0.543648 221:-0.385876 222:-0.838631 223:-0.965654 224:-1 225:-1 226:-1 228:-1 229:-0.245329 230:0.325021 231:-0.57041 232:-0.935698 233:-0.989247 234:-1 239:-0.852273 240:-0.193548 241:0.329843 242:0.0288184 243:-0.395129 244:-0.314179 245:0.225033 246:0.381503 247:-0.340058 248:-0.939252 249:0.140064 250:-0.22622 251:0.276709 252:0.324498 253:0.238329 254:0.506533 255:0.407356 256:0.498935 257:0.979542 258:0.342879 259:0.2 260:0.436 261:0.282127 262:-0.0932017 263:0.233958 264:0.165015 265:-0.0589958 266:0.236111 267:0.467497 268:0.0890052 269:0.256637 270:0.883824 271:0.472824 272:0.500592 273:0.6218 274:0.272265 275:0.285606 276:0.363146 277:-0.251749 278:0.136904 279:-0.999549 280:-0.97479 281:-0.884337 282:-0.831547 283:-0.847682 284:-0.51269 285:-0.406907 286:-0.516832 287:-0.504981 288:-0.404659 289:0.860438 290:0.583645 291:0.23575 292:-0.207321 293:0.156368 294:-0.713422 295:-0.737623 296:-1 302:-1 303:-1 304:-0.965679 305:-0.420321 306:0.347826 307:-1 308:-1 310:-1 311:-1 312:-0.980769 313:-0.971067 314:-0.827068 315:0.237569 316:0.240876 317:-1 318:-1 319:0.2 320:-0.0666667 321:-0.111111 322:-0.90404 323:-0.777151 324:-0.339829 325:0.752212 326:-0.184615 327:-0.960784 328:-0.53125 329:-0.120482 330:0.18239 331:-0.28 332:-0.661017 333:-0.51145 334:-0.0963257 335:0.570093 336:-0.386096 337:-0.750329 338:-0.141774 339:-0.214353 340:-0.431973 341:-0.58663 342:-0.569464 343:-0.402574 344:0.15404 345:-0.172227 346:-0.734139 347:-0.137377 348:0.658986 349:-0.0949721 350:-0.384 351:-0.579937 352:-0.131833 353:0.813953 354:0.613445 355:-0.333333 356:-0.7 357:0.331457 358:0.685749 359:-0.459816 360:-0.797395 361:-0.874396 362:-0.3 363:-0.142857 364:-1 365:-1 366:-1 367:0.404704 368:-0.180863 369:-0.867209 370:-0.982379 371:-0.988372 373:-1 374:-1 375:-1 376:-1 377:0.267647 378:-0.709939 379:-0.98895 380:-1 381:-1 382:-1 386:-1 387:-0.639344 388:0.173709 389:0.136905 390:-0.311628 391:-0.532625 392:-0.531783 393:-0.252567 394:0.517442 395:0.633401 396:-0.582011 397:-0.287457 398:-0.101948 399:0.384236 400:0.445042 401:0.174757 402:-0.0363423 403:-0.00346821 404:0.491643 405:0.779661 406:0.238806 407:0.527426 408:0.291407 409:0.343023 410:-0.462375 411:0.0691541 412:-0.166082 413:0.307829 414:1 415:0.418685 416:0.0224215 417:0.384853 418:0.435065 419:0.14933 420:0.806268 421:0.551724 422:0.485075 423:0.0850022 424:0.18125 425:-0.546429 426:-0.0570641 427:-0.895305 428:-0.433198 429:0.109285 430:0.43662 431:0.686047 432:-0.0531148 433:-0.00879765 434:0.0238095 435:0.645385 436:0.6 437:0.0966469 438:0.263362 439:-0.0997783 440:-0.513321 441:0.00711744 442:-0.0935373 443:-0.234382 444:-0.934956 
-0.41355979340358118 6:-1 7:-0.357955 8:0.234409 9:-0.857605 10:-1 16:-0.913633 17:0.205498 18:-0.0683027 19:-0.942829 20:-1 25:-0.333333 26:-0.818504 27:-0.0909091 28:-0.256351 29:-0.861066 30:-1 31:-1 32:-1 33:-0.925 34:-0.61194 35:0.00833333 36:-0.280842 37:0.755027 38:-0.193209 39:-0.963077 40:-0.999239 41:-1 42:-0.89142 43:-0.578977 44:-0.0821677 45:0.21342 46:0.271567 47:0.514783 48:-0.551929 49:-0.983131 50:-1 51:-0.996344 52:-0.766718 53:-0.17734 54:0.858204 55:0.209939 56:0.152067 57:-0.570151 58:-0.983443 59:-1 60:-0.999359 61:-0.988879 62:-0.761183 63:0.0985083 64:0.835734 65:-0.321758 66:0.113677 67:-1 68:-1 69:-1 70:-1 71:-0.997529 72:-0.909435 73:-0.559477 74:-0.0110765 75:-0.405235 76:-0.695466 77:-1 78:-1 79:-1 80:-0.993721 81:-0.997872 82:-0.93633 83:-0.714658 84:-0.257253 85:-0.669174 86:-0.933156 91:-1 92:-0.957447 93:-0.802817 94:-0.373737 95:-0.0532544 96:-0.0752572 97:0.0741018 98:-0.738687 99:-0.994914 100:-1 101:-0.281034 102:0.27372 103:0.264151 104:0.611049 105:0.0147059 106:-0.0614788 107:0.553741 108:0.694428 109:0.434028 110:0.522833 111:0.321063 112:0.459056 113:0.0576653 114:-0.125786 115:0.188794 116:-0.138483 117:0.366791 118:0.104161 119:0.432428 120:-0.191176 121:-0.0399902 122:0.273453 123:0.742973 124:0.493454 125:0.112069 126:0.32766 127:0.396636 128:-0.0984308 129:-0.194472 130:-0.0361545 131:-0.754089 132:-0.427925 133:-0.136967 134:-0.0462848 135:0.242502 136:-0.164732 137:0.0816079 138:-0.0109769 139:0.734205 140:0.350211 141:0.227846 142:0.577421 143:0.133978 144:-0.187959 145:0.076547 146:-0.418335 147:-0.420008 148:-0.745775 154:-1 155:-0.867661 156:-0.417239 157:0.636364 158:-0.668293 159:-1 160:-1 161:-1 162:-1 163:-1 164:-0.976563 165:-0.706546 166:0.131313 167:0.279808 168:-0.848894 169:-1 170:-1 171:-1 172:-0.6 173:0.4 174:-0.780554 175:-0.206827 176:0.795614 177:0.13792 178:-0.91133 179:-0.99536 180:-0.744318 181:-0.255985 182:0.458515 183:0.488158 184:-0.335756 185:0.427853 186:0.841513 187:-0.149565 188:-0.946476 189:-0.940162 190:-0.50185 191:0.280543 192:0.33083 193:-0.27894 194:-0.248554 195:0.53224 196:0.171773 197:-0.571429 198:-0.991189 199:-0.815618 200:0.119078 201:0.928694 202:0.246087 203:-0.413506 204:0.200528 205:0.361854 206:-0.340483 207:-0.920863 208:-1 209:-0.747345 210:0.572184 211:0.693333 212:-0.381132 213:-0.795089 214:0.384615 215:-0.636364 216:-1 217:-1 218:-1 219:-0.683532 220:0.6472 221:-0.00126103 222:-0.710269 223:-0.970938 224:-1 225:-1 226:-1 228:-1 229:-0.509343 230:0.62261 231:-0.426025 232:-0.851441 233:-0.994624 234:-1 239:-0.950758 240:-0.34767 241:0.375218 242:0.371758 243:-0.192152 244:-0.245472 245:0.214381 247:-0.504323 248:-0.990654 249:0.0614708 250:-0.145923 251:0.497014 252:0.49829 253:0.203931 254:0.61568 255:0.540455 256:0.391238 257:0.407529 258:0.403165 259:0.258667 260:0.423528 261:0.369276 262:-0.0813263 263:0.248878 264:0.226272 265:-0.0525802 266:0.385101 267:0.428451 268:0.209424 269:0.266167 270:0.313971 271:0.396215 272:0.666272 273:0.64327 274:0.19084 275:0.437197 276:0.55744 277:-0.186363 278:0.0320206 279:-0.999097 280:-0.941176 281:-0.855422 282:-0.816233 283:-0.715232 284:-0.377327 285:-0.31982 286:-0.461386 287:-0.371156 288:-0.261432 289:0.694476 290:0.662043 291:0.304523 292:-0.167665 293:0.111291 294:-0.734803 295:-0.699201 296:-1 302:-1 303:-1 304:-0.925117 305:-0.253476 306:-0.00465839 307:-1 308:-1 310:1 311:-1 312:-1 313:-0.938517 314:-0.759398 315:0.460773 316:-0.111314 317:-1 318:-1 319:-1 320:-0.733333 321:-0.111111 322:-0.787879 323:-0.748942 324:-0.17905 325:1 326:-0.516239 327:-0.960784 328:-0.552083 329:-0.0120482 330:0.647799 331:-0.150769 332:-0.449153 333:-0.324427 334:0.169811 335:0.517134 336:-0.629947 337:-0.868594 338:-0.0962851 339:-0.0236072 340:-0.197279 341:-0.431105 342:-0.4663 343:-0.200368 344:0.222222 345:-0.379621 346:-0.909366 347:-0.455677 348:0.74808 349:0.13594 350:-0.274 351:-0.54441 352:-0.163987 353:0.503876 354:0.109244 355:-0.825397 356:-1 357:-0.172414 358:0.941535 359:-0.296443 360:-0.719247 361:-0.864734 362:-0.5 363:-0.714286 364:-1 365:-1 366:-1 367:0.158151 368:0.0548425 369:-0.804878 370:-0.920705 371:-1 372:-1 373:-1 374:-1 375:-1 376:-1 377:0.117647 378:-0.533469 379:-0.952118 380:-1 381:-1 382:-1 386:-1 387:-0.717213 388:0.178404 389:0.5 390:-0.162791 391:-0.487102 392:-0.472868 393:-0.23614 394:0.372093 395:0.0427699 396:-0.867725 397:-0.255082 398:0.231536 399:0.711823 400:0.513434 401:-0.0970874 402:0.139508 403:0.146821 404:0.284123 405:0.40678 406:0.363184 407:0.603376 408:0.31253 409:-0.162791 410:-0.476018 411:-0.19138 412:-0.0112218 413:0.205516 414:0.454311 415:0.243945 416:-0.264574 417:0.0880989 418:-0.0649351 419:0.2291 420:0.74359 421:0.487685 422:0.201493 423:0.118825 424:0.075 425:-0.540041 426:-0.295553 427:-0.817527 428:-0.222672 429:0.314708 430:0.652582 431:0.503876 432:-0.0255738 433:0.00733138 434:0.225225 435:0.616239 436:0.504972 437:-0.225247 438:0.325395 439:-0.330377 440:-0.517984 441:-0.24484 442:-0.0279006 443:0.0382977 444:-0.88482 
4.5169758450549828 6:-1 7:-0.784091 8:0.436559 9:-0.0614887 10:-1 16:-0.992148 17:-0.553265 18:0.0985685 19:-0.541646 20:-0.987976 25:-1 26:-0.905268 27:-0.316558 28:0.361432 29:0.42811 30:-0.983471 31:-1 32:-0.7 33:0.425 34:0.428571 35:0.341667 36:-0.642271 37:0.266929 38:0.618814 39:-0.554764 40:-0.97565 41:-0.818849 42:1 43:0.923959 44:0.687604 45:0.0508354 46:-0.123344 47:0.966082 48:0.713515 49:-0.555236 50:-0.97628 51:-0.686275 52:0.931594 53:0.843803 54:0.740921 55:-0.43538 56:-0.298128 57:-0.281833 58:-0.854909 59:-0.95561 60:-0.994555 61:-0.690918 62:0.275313 63:0.561349 64:0.0162805 65:-0.780626 66:-0.339254 67:-0.797235 68:-1 69:-1 70:-1 71:-0.773476 72:-0.52192 73:-0.353252 74:-0.339639 75:-0.76349 76:-0.738998 77:-0.973046 78:-0.970909 79:-0.996647 80:-1 81:-0.906932 82:-0.696583 83:-0.645257 84:-0.617176 85:-0.88039 86:-0.924754 91:-1 92:-0.829787 93:0.239437 94:0.0774411 95:-0.394759 96:-0.563617 97:-0.00598802 98:-0.230083 99:-0.910998 100:-1 101:-0.450004 102:0.436162 103:-0.240889 104:0.73345 105:0.0441176 106:-0.502247 107:0.587501 108:0.89773 109:0.628176 110:0.144455 111:0.0429448 112:0.58786 113:0.372714 114:-0.0731162 115:0.409128 116:-0.444479 117:0.4011 118:-0.238304 119:0.599018 120:0.132353 121:-0.359173 122:0.438084 123:0.856427 124:0.747949 125:-0.0206897 126:-0.0212766 127:0.623198 128:0.206847 129:0.0451201 130:0.471968 131:-0.912266 132:-0.754348 133:-0.549472 134:-0.472733 135:0.132819 136:-0.55041 137:-0.0529477 138:-0.403573 139:0.465117 140:0.0312236 141:0.825551 142:0.475266 143:0.929544 144:-0.0455929 145:0.440484 146:-0.805893 147:-0.713514 148:-0.928464 154:-0.99262 155:-0.960857 156:-0.838291 157:0.00363636 158:-0.087108 159:-1 160:-1 161:-1 162:-1 163:-1 164:-0.998047 165:-0.923251 166:-0.741162 167:0.177885 168:-0.227273 169:-1 170:-1 171:-1 172:-0.6 173:-0.28 174:-0.939086 175:-0.780455 176:-0.233784 177:0.664819 178:-0.165517 179:-0.87471 180:0.193182 181:0.742173 182:0.6623 183:-0.134211 184:-0.698378 185:-0.336944 186:0.671056 187:0.932601 188:-0.276291 189:0.450304 190:0.855112 191:0.819416 192:0.0139485 193:-0.603643 194:-0.615177 195:0.166479 196:0.718734 197:0.934821 198:-0.751101 199:0.875813 200:0.903329 201:0.240537 202:-0.462946 203:-0.75491 204:-0.26781 205:0.351159 206:0.104558 207:-0.460432 208:-0.98995 209:0.296961 210:0.524565 211:-0.445714 212:-0.84837 213:-0.939881 214:-0.153846 215:-0.454545 216:-1 217:-1 218:-1 219:0.0992063 220:0.07646 221:-0.773014 222:-0.94621 223:-0.992074 224:-1 225:-1 226:-1 228:-1 229:0.130802 230:-0.26517 231:-0.903743 232:-0.977827 233:-0.994624 234:-1 239:-0.496212 240:0.258065 241:0.172775 242:-0.319885 243:-0.630582 244:-0.702686 245:-0.275632 246:-0.0578035 247:-0.0864553 248:-0.827103 249:0.0778718 250:0.0159049 251:0.158593 252:0.516674 253:-0.120393 254:0.148347 255:0.370928 256:0.539093 257:0.602291 258:0.18312 259:-0.146667 260:0.412324 261:0.218612 262:-0.111749 263:0.117243 264:0.00274371 265:-0.0716876 266:0.0707071 267:0.427396 268:-0.183246 269:0.0605854 270:0.476471 271:0.530507 272:0.459566 273:0.240297 274:-0.195929 275:0.495202 276:0.318427 277:-0.0155364 278:0.144961 279:-0.999549 280:-0.966387 281:-0.942169 282:-0.932619 283:-0.940397 284:-0.715736 285:-0.665165 286:-0.730693 287:-0.708965 288:-0.739431 289:0.84852 290:0.371125 291:0.480638 292:-0.102008 293:0.098371 294:-0.84138 295:-0.811267 296:-1 302:-1 303:-0.99278 304:-0.99376 305:-0.873797 306:0.226708 307:-1 308:-1 310:-1 311:-1 312:-0.990385 313:-0.985533 314:-0.929825 315:-0.641989 316:0.695255 317:-1 318:1 319:-1 320:-0.2 321:-0.62963 322:-0.944444 323:-0.926657 324:-0.778319 325:-0.0914454 326:0.820513 327:-0.313725 328:0.40625 329:0.674699 330:0.471698 331:-0.612308 332:-0.792373 333:-0.675573 334:-0.469712 335:0.647975 336:0.985027 337:0.204993 338:0.398029 339:-0.233239 340:-0.620748 341:-0.725784 342:-0.73315 343:-0.626838 344:-0.116162 345:0.0892696 346:0.214502 347:0.941939 348:0.293395 349:-0.592179 350:-0.786 351:-0.774295 352:-0.517685 353:-0.00775194 354:0.344538 355:-0.0793651 356:-0.1 357:0.954961 358:-0.320341 359:-0.783926 360:-0.930535 361:-0.932367 362:-0.5 363:-0.428571 364:-1 365:-1 366:-1 367:0.578264 368:-0.787631 369:-0.945799 370:-0.986784 371:-1 372:-1 373:-1 374:-1 375:-1 376:-1 377:0.242647 378:-0.935091 379:-0.996317 380:-1 381:-1 382:-1 386:-1 387:0.0901639 388:0.248826 389:-0.434524 390:-0.651163 391:-0.787557 392:-0.755039 393:-0.704312 394:-0.377907 395:0.112016 396:-0.164021 397:-0.53245 398:0.304939 399:0.236453 400:0.72936 401:0.0485437 402:-0.158265 403:0.456647 404:0.506964 405:0.706215 406:0.348259 407:-0.021097 408:0.576572 409:0.604651 410:-0.399275 411:0.307173 412:-0.429233 413:0.248221 414:0.256113 415:0.642734 416:-0.103139 417:0.0850077 418:0.426407 419:0.351627 420:0.763533 421:0.399015 422:0.164179 423:0.605696 424:0.875 425:-0.303217 426:0.439591 427:-0.961502 428:-0.848178 429:-0.574363 430:-0.41471 431:-0.0542636 432:-0.415082 433:-0.14956 434:-0.458172 435:0.387231 436:0.261878 437:0.79645 438:0.457214 439:0.94235 440:-0.36079 441:0.363345 442:-0.686162 443:-0.667309 444:-0.963944 
8 6:-0.993691 7:-0.661932 8:0.87957 9:0.0809061 10:-1 16:-0.989293 17:-0.112715 18:0.370961 19:-0.685559 20:-0.995992 25:-0.333333 26:-0.891988 27:0.0275974 28:0.778291 29:0.315024 30:-1 31:-1 32:-0.4 33:0.15 34:0.471215 35:0.679762 36:-0.466297 37:0.702057 38:0.333704 39:-0.791201 40:-0.999493 41:-0.98776 42:-0.25741 43:0.231013 44:0.426498 45:0.172351 46:-0.00157684 47:0.678805 48:-0.0895037 49:-0.906809 50:-0.999461 51:-0.976736 52:-0.198641 53:0.405675 54:0.935622 55:-0.133758 56:-0.10869 57:-0.509846 58:-0.971791 59:-1 60:-0.99968 61:-0.972196 62:-0.422796 63:0.422927 64:0.624713 65:-0.544072 66:-0.0932504 67:-0.953917 68:-1 69:-1 70:-1 71:-0.98682 72:-0.81851 73:-0.462201 74:-0.126571 75:-0.590067 76:-0.724361 77:-0.999281 78:-1 79:-1 80:-0.99686 81:-0.995744 82:-0.879712 83:-0.664364 84:-0.3188 85:-0.756163 86:-0.939664 91:-1 92:-0.957447 93:-0.0985915 94:0.239057 95:0.0211327 96:-0.239127 97:0.306886 98:-0.439133 99:-0.980928 100:-0.992982 101:-0.413195 102:0.299063 103:-0.00284311 104:0.655341 105:0.5 106:-0.326593 107:0.507419 108:0.919703 109:0.93762 110:0.813607 111:0.566462 112:0.588779 113:0.589311 114:-0.125374 115:0.37293 116:-0.392058 117:0.369493 118:0.0346343 119:0.696937 120:0.558824 121:-0.12317 122:0.551617 123:0.784969 124:1 125:0.577586 126:0.791489 127:0.559951 128:0.477889 129:-0.110796 130:0.330004 131:-0.895551 132:-0.699314 133:-0.433207 134:-0.290998 135:0.537275 136:-0.393433 137:-0.0722301 138:-0.300602 139:0.652965 140:0.6 141:0.72565 142:0.581725 143:0.61356 144:-0.148118 145:0.351511 146:-0.694628 147:-0.643698 148:-0.921739 154:-0.98893 155:-0.914259 156:-0.609458 157:0.469091 158:-0.0494774 159:-1 160:-1 161:-1 162:-1 163:-1 164:-0.982422 165:-0.843115 166:-0.247475 167:0.476923 168:-0.265356 169:-1 170:-1 171:-1 172:-0.6 173:0.16 174:-0.85084 175:-0.494645 176:0.368175 177:0.698728 178:-0.469951 179:-0.967517 180:-0.340909 181:0.296501 182:0.688501 183:0.256579 184:-0.53926 185:0.0232108 186:0.727077 187:0.370693 188:-0.688654 189:-0.663286 190:0.0142162 191:0.496503 192:0.13269 193:-0.536204 194:-0.54068 195:0.124242 196:0.265696 197:-0.0973214 198:-0.940529 199:-0.280369 200:0.652049 201:0.738706 202:-0.112578 203:-0.628464 204:0.0408971 205:0.518717 206:-0.19571 207:-0.798561 208:-1 209:-0.250092 210:0.908541 211:0.347619 212:-0.589022 213:-0.863675 214:-0.192308 215:-0.818182 216:-0.6 217:-1 218:-1 219:-0.1875 220:0.855509 221:-0.307692 222:-0.844743 223:-0.978864 224:-1 225:-1 226:-1 228:-1 229:-0.101869 230:0.584372 231:-0.611408 232:-0.926829 233:-0.983871 234:-1 239:-0.75 240:0.229391 241:0.668412 242:0.345821 243:-0.385656 244:-0.435353 245:0.243675 246:0.416185 247:-0.0691643 248:-0.873832 249:0.159877 250:-0.150556 251:0.534174 252:0.412783 253:0.464373 254:0.638739 255:0.394046 256:0.416641 257:0.788052 258:0.674454 259:0.317333 260:0.459677 261:0.466765 262:-0.180999 263:0.180222 264:0.0992777 265:-0.13947 266:0.353535 267:0.493457 268:0.434555 269:0.58339 270:0.621324 271:0.393187 272:0.50927 273:0.803468 274:0.277354 275:0.399892 276:0.637625 277:-0.19299 278:0.178023 279:-0.998646 280:-0.957983 281:-0.893976 282:-0.883614 283:-0.768212 284:-0.424704 285:-0.551051 286:-0.6 287:-0.54699 288:-0.35289 289:0.805459 290:0.667109 291:0.334882 292:-0.225333 293:0.148575 294:-0.692792 295:-0.664383 296:-1 302:-1 303:-0.98556 304:-0.956318 305:-0.499465 306:0.439441 307:-1 308:-1 310:-1 311:-1 312:-1 313:-0.985533 314:-0.804511 315:-0.0187845 316:0.578467 317:-1 318:-1 319:0.2 320:0.0666667 321:-0.037037 322:-0.868687 323:-0.791255 324:-0.366626 325:0.500492 326:0.186325 327:-0.892157 328:-0.229167 329:0.566265 330:0.572327 331:-0.2 332:-0.625 333:-0.526718 334:-0.155909 335:0.461059 336:-0.255615 337:-0.697766 338:-0.0568613 339:-0.301228 340:-0.532313 341:-0.716235 342:-0.691884 343:-0.558824 344:-0.184343 345:-0.356177 346:-0.746224 347:0.0119233 348:0.456221 349:-0.340782 350:-0.584 351:-0.726228 352:-0.356913 353:0.178295 354:-0.0252101 355:-0.412698 356:-1 357:0.4905 358:0.529842 359:-0.462451 360:-0.777135 361:-0.942029 362:-0.4 363:-1 364:-0.5 365:-1 366:-1 367:0.696675 368:-0.0991832 369:-0.848238 370:-0.973568 371:-0.988372 372:-1 373:-1 374:-1 375:-1 376:-1 377:0.439706 378:-0.624746 379:-0.974217 380:-1 381:-1 382:-1 386:-1 387:-0.45082 388:0.455399 389:0.321429 390:-0.162791 391:-0.459788 392:-0.47907 393:-0.207392 394:0.372093 395:0.531568 396:-0.343915 397:-0.316519 398:0.087449 399:0.618227 400:0.376649 401:0.174757 402:0.116061 403:0.121387 404:0.348886 405:1 406:0.736318 407:0.493671 408:0.362458 409:0.52907 410:-0.547218 411:0.0459955 412:-0.171693 413:0.149466 414:0.835264 415:0.480969 416:-0.0672646 417:0.27357 418:0.106061 419:0.0453095 420:0.769231 421:0.729064 422:0.761194 423:0.168669 424:0.84375 425:-0.531371 426:0.161747 427:-0.882316 428:-0.407895 429:-0.0139688 430:0.341158 431:0.317829 432:-0.0767213 433:-0.18915 434:-0.0701416 435:0.514226 436:0.770166 437:0.199211 438:0.318748 439:0.218034 440:-0.549956 441:0.0932384 442:-0.199378 443:-0.0271025 444:-0.907729 
2.331853011722429 6:-1 7:-0.928977 8:0.00215054 9:0.139159 10:-0.942308 16:-0.997859 17:-0.739519 18:0.0912065 19:-0.0744209 20:-0.943888 25:-1 26:-0.959274 27:-0.680195 28:-0.0531178 29:0.198708 30:-0.942149 31:-1 32:-0.9 33:-0.025 34:0.1258 35:-0.267857 36:-0.788299 37:-0.103767 38:0.847704 39:-0.22224 40:-0.968548 41:-0.870257 42:0.632449 43:0.485602 44:0.256444 45:-0.291953 46:-0.305447 47:0.87828 48:1 49:-0.317219 50:-0.981671 51:-0.696245 52:1 53:0.863467 54:0.695857 55:-0.548152 56:-0.1895 57:0.192544 58:-0.497762 59:-0.882683 60:-0.996156 61:-0.621409 62:0.895939 63:0.854589 64:0.0164893 65:-0.845574 66:-0.0408526 67:-0.658986 68:-0.928571 69:-1 70:-1 71:-0.658979 72:-0.0921883 73:0.111451 74:-0.128065 75:-0.80443 76:-0.558027 77:-0.727224 78:-0.938909 79:-0.998324 80:-0.990581 81:-0.82652 82:-0.273397 83:-0.408235 84:-0.505973 85:-0.900052 86:-0.81141 91:-1 92:-0.617021 93:0.0704225 94:0.030303 95:-0.555368 96:-0.688143 97:0.0291916 98:0.106437 99:-0.786395 100:-0.996491 101:-0.362291 102:0.388138 103:-0.141122 104:0.720583 105:-0.0441176 106:-0.416054 107:0.518097 108:0.923714 109:0.444892 110:0.166822 111:0.0838446 112:0.591644 113:0.111111 114:-0.159113 115:0.170035 116:-0.335208 117:0.352989 118:-0.214784 119:0.602393 120:-0.161765 121:-0.285345 122:0.36479 123:0.876685 124:0.612498 125:0.0706897 126:0.178723 127:0.562856 128:0.198288 129:-0.114908 130:0.323368 131:-0.83595 132:-0.573595 133:-0.387917 134:-0.229067 135:0.137961 136:-0.454925 137:-0.0364048 138:-0.171772 139:0.608473 140:0.11308 141:0.613994 142:0.561907 143:0.644037 144:-0.168854 145:0.246546 146:-0.594617 147:-0.460737 148:-0.850934 154:-1 155:-0.979497 156:-0.87643 157:0.0618182 158:0.0648084 159:-1 160:-1 161:-1 162:-1 163:-1 164:-0.990234 165:-0.963883 166:-0.733586 167:0.204808 168:-0.109337 169:-1 170:-1 171:-0.333333 172:1 173:0.08 174:-0.946115 175:-0.858099 176:-0.262716 177:0.677209 178:-0.0581281 179:-0.837587 180:0.511364 181:0.709024 182:0.973799 183:-0.0671053 184:-0.749513 185:-0.382205 186:0.610247 187:0.984097 188:-0.274783 189:0.352941 190:0.885492 191:0.80255 192:-0.00715308 193:-0.651964 194:-0.635228 195:0.12559 196:0.77549 197:1 198:-0.72467 199:0.867137 200:0.893726 201:0.228816 202:-0.527814 203:-0.803874 204:-0.350923 205:0.404635 206:0.319035 207:-0.431655 208:-1 209:0.408275 210:0.674225 211:-0.5 212:-0.876501 213:-0.957663 214:0.0384615 215:0.0909091 216:-0.6 217:-1 218:-1 219:0.318452 220:0.0776641 221:-0.886507 222:-0.981663 223:-0.989432 224:-1 225:-1 226:-1 228:-1 229:0.362266 230:-0.343308 231:-0.914439 232:-0.986696 233:-1 234:-1 239:-0.450758 240:0.573477 241:0.431065 242:-0.239193 243:-0.682003 244:-0.705184 245:-0.259654 246:0.248555 247:0.0115274 248:-0.836449 249:0.0349669 250:-0.0365967 251:0.145322 252:0.593844 253:-0.125307 254:0.203689 255:0.381436 256:0.548372 257:0.548282 258:0.330821 259:0.008 260:0.531339 261:0.230428 262:-0.135499 263:0.0843676 264:-0.0316367 265:-0.0967922 266:0.0934343 267:0.544745 268:0.115183 269:0.150442 270:0.425735 271:0.54595 272:0.538462 273:0.293146 274:-0.119593 275:0.573477 276:0.310717 277:-0.0740004 278:0.0962006 279:-0.999549 280:-0.966387 281:-0.913253 282:-0.914242 283:-0.92053 284:-0.773266 285:-0.704204 286:-0.759406 287:-0.687744 288:-0.646247 289:0.870178 290:0.485707 291:0.555607 292:-0.142463 293:0.0562421 294:-0.802954 295:-0.779894 296:-1 302:-1 303:-1 304:-0.99688 305:-0.922995 306:0.322981 307:-1 308:-1 310:-1 311:-1 312:-1 313:-0.992767 314:-0.987469 315:-0.675138 316:0.611314 317:-1 318:-0.333333 319:-0.2 320:1 321:-0.185185 322:-0.914141 323:-0.918195 324:-0.797808 325:-0.0540806 326:0.822222 327:-0.22549 328:0.65625 329:0.566265 330:0.534591 331:-0.52 332:-0.773305 333:-0.763359 334:-0.459782 335:0.602804 336:1 337:0.245729 338:0.411676 339:-0.333333 340:-0.608844 341:-0.717599 342:-0.811554 343:-0.534926 344:-0.0732323 345:0.237151 346:-0.0574018 347:0.914982 348:0.164363 349:-0.627561 350:-0.806 351:-0.816092 352:-0.575563 353:-0.271318 354:0.00840336 355:-0.15873 356:-0.9 357:1 358:-0.305725 359:-0.902503 360:-0.947902 361:-0.927536 362:-0.8 363:-1 364:-1 365:-1 366:-1 367:0.719384 368:-0.841307 369:-0.97832 370:-1 371:-1 372:-1 373:-1 374:-1 375:-1 376:-1 377:0.330882 378:-0.96146 379:-0.996317 380:-1 381:-1 382:-1 386:-1 387:0.258197 388:0.197183 389:-0.369048 390:-0.613953 391:-0.775417 392:-0.748837 393:-0.716632 394:-0.244186 395:0.250509 396:-0.121693 397:-0.553832 398:0.231536 399:0.155172 400:0.890572 401:0.116505 402:-0.177022 403:0.327168 404:0.500696 405:0.525424 406:0.502488 407:0.198312 408:0.765723 409:0.726744 410:-0.406523 411:0.283371 412:-0.467246 413:0.270463 414:0.261261 415:0.812284 416:0.0672646 417:0.0479134 418:0.270563 419:0.450542 420:0.840456 421:0.502463 422:0.291045 423:0.632399 424:0.775 425:-0.339265 426:0.406533 427:-0.985759 428:-0.865385 429:-0.620378 430:-0.367762 431:0.0503876 432:-0.377049 433:-0.29912 434:-0.451094 435:0.407356 436:0.485083 437:0.807495 438:0.564664 439:1 440:-0.381439 441:0.335231 442:-0.71192 443:-0.698121 444:-0.998568 
